<?xml version="1.0"?>
<opencv_storage>
<opencv_ml_svm>
  <format>3</format>
  <svmType>C_SVC</svmType>
  <kernel>
    <type>LINEAR</type></kernel>
  <C>1.</C>
  <term_criteria><iterations>1000</iterations></term_criteria>
  <var_count>1764</var_count>
  <class_count>3</class_count>
  <class_labels type_id="opencv-matrix">
    <rows>3</rows>
    <cols>1</cols>
    <dt>i</dt>
    <data>
      0 1 2</data></class_labels>
  <sv_total>3</sv_total>
  <support_vectors>
    <_>
      0.0549678281 0.0355120599 0.0792758092 0. 0.125120476 0.
      0.0636481494 0.0204071458 0.0549678281 0.0480729714 0.0074255364
      0.00852770358 0. -0.00874961261 0. 0.0249717608 0.000349926035
      0.0480729714 -0.00675819768 0.0529047586 0.120912038 0.
      0.139496267 0. 0.0961417109 0.048713997 -0.00675819768
      0.00506403996 0.0164171793 0.0250494089 0. 0.00218231278 0.
      0.0206166208 -0.000878498307 0.00506403996 0.0183515679
      0.000981397694 -0.0242726766 0. -0.00808751211 0. 0.0302435216
      0.0231324043 0.0183515679 0.0330839083 0.00453573605 0.0120060742
      0. -0.00795701612 0. 0.0553909242 0.0325012207 0.0330839083
      0.00522184093 -0.00518792635 -0.0108263008 0. 0.00794305559 0.
      0.0178154763 0.00857252348 0.00522184093 0.0773287788 0.0318035595
      0.0211336948 0. -0.0131966909 0. 0.0372292362 0.0159435831
      0.0773287788 0.0630192161 0.00376527966 0.0222841464 0.
      -0.0235783793 0. 0.0154517898 0.0103849759 0.0630192161
      0.0753253177 -0.00525789009 -0.0224708579 0. -0.149493515 0.
      -0.0465318821 -0.0269412976 0.0753253177 0.0784376189 0.042431742
      0.0600859821 0. -0.0171800721 0. -0.00685345801 0.00488135219
      0.0784376189 0.0691996887 0.0225427989 -0.028302582 0.
      -0.136813357 0. -0.0394794457 -0.0185921639 0.0691996887
      0.0678923801 -0.00841070153 -0.0199480224 0. -0.0485782139 0.
      -0.00471725175 0.00123568357 0.0678923801 0.0344418064
      -0.0178331882 -0.0334322527 0. -0.0292211045 0. -0.0388124175
      -0.0137317013 0.0344418064 0.0607808791 -0.000752104737
      -0.0101858927 0. -0.0830200016 0. 0.0390621908 0.00911815837
      0.0607808791 0.0289242808 -0.0079358425 -0.0163322818 0.
      -0.0527382568 0. 0.002356607 0.00236436096 0.0289242808
      0.0175286829 -0.016954096 -0.0220070984 0. -0.0206211302 0.
      -0.0290785152 -0.0107132923 0.0175286829 -0.0027975319
      -0.00982619356 -0.00865308568 0. -0.0346700549 0. -0.0481938235
      -0.0136017781 -0.0027975319 0.0349794962 -0.0088481307
      -0.0256348085 0. -0.044879403 0. 0.010973434 -0.00192013453
      0.0349794962 -0.00182323938 -0.00771669298 -0.0280600749 0.
      -0.0298154522 0. -0.030931877 -0.0273334011 -0.00182323938
      -0.000527320954 -0.00549415499 -0.00650660321 0. 0.00617919303 0.
      -0.0457007252 -0.0164632089 -0.000527320954 0.0511973463
      -0.00612446386 -0.00428959588 0. 0.0177921671 0. 0.00503077824
      0.00675910944 0.0511973463 -0.0341045633 -0.0111628808
      -0.0373287424 0. -0.00550534995 0. -0.0499576814 -0.0415693671
      -0.0341045633 -0.0115732085 -0.000600608066 0.00474185636 0.
      -0.00464914367 0. 0.002424818 0.00902054738 -0.0115732085
      0.0509138145 -0.0220547467 -0.0180013832 0. 0.0190930087 0.
      -0.00587689457 -0.00394265587 0.0509138145 0.0641682595
      0.0289664362 0.0746539757 0. 0.063038379 0. 0.0591456108
      0.0214284528 0.0641682595 -0.0392427854 -0.0158569794
      -0.0335409082 0. -0.00816759933 0. -0.0438123345 -0.00632579019
      -0.0392427854 0.0137598263 0.000892103824 0.00850530062 0.
      0.00825431664 0. 0.0375094861 0.0116519472 0.0137598263
      0.055448547 0.0589183383 0.118630134 0. 0.14307335 0. 0.0781894252
      0.0390157104 0.055448547 0.0283965692 0.0213133059 0.0445843674 0.
      -0.0441960208 0. -0.00724151637 -0.0125268167 0.0283965692
      -0.0167102758 0.000967186643 0.00555696944 0. 0.0245293658 0.
      -0.021433875 -0.0146502126 -0.0167102758 -0.0445721149
      -0.0141018126 0.0133573851 0. -0.0251893438 0. -0.0762384534
      -0.0279785749 -0.0445721149 0.0335263424 0.0148489606 0.0252473447
      0. 0.00943249837 0. 0.0027829702 0.000292803423 0.0335263424
      0.0707948357 0.0207009092 0.0316865742 0. -0.00110247463 0.
      0.0788310692 0.0361223035 0.0707948357 -0.0405299477 0.00432755239
      0.0131161641 0. -0.0177780036 0. -0.0521179438 -0.0269680452
      -0.0405299477 0.0396218672 0.0282921679 0.0220643729 0.
      -0.0200429764 0. 0.0262301248 0.0152932545 0.0396218672
      0.0592661612 0.0186877791 0.0565213822 0. -0.0406671129 0.
      0.056023702 0.0228359029 0.0592661612 -0.0320441872 0.0114132995
      0.0157113299 0. -0.091395922 0. -0.0244957004 -0.023851173
      -0.0320441872 0.0588074848 0.0246916432 0.0148189031 0.
      -0.0298440251 0. 0.0411356799 0.015546334 0.0588074848
      0.0468331538 0.0350038446 0.058453247 0. -0.0330585726 0.
      0.0256105307 0.0096173957 0.0468331538 -0.00704835774
      0.00148306857 0.00588535517 0. -0.0741389915 0. 0.0235766154
      0.0073501952 -0.00704835774 0.0272688698 -0.0145502649
      -0.0158807281 0. -0.0538083613 0. 0.0256951973 0.0133772194
      0.0272688698 0.0559202395 0.00928173587 0.0196991172 0.
      0.005965441 0. 0.0244969893 0.0128568476 0.0559202395 0.0387849398
      -0.0222090222 -0.0291035175 0. -0.0163815077 0. 0.04045384
      0.023412846 0.0387849398 0.0609902777 -0.00486719375
      -0.00924078748 0. -0.0292666145 0. 0.0515611619 0.0166651886
      0.0609902777 -0.0057148654 -0.0299931243 -0.0797880813 0.
      -0.0248630848 0. -0.025848927 -0.0383671634 -0.0057148654
      0.024149524 -0.00672279485 -0.0152287576 0. -0.0126479724 0.
      0.0689394474 0.0282459874 0.024149524 0.00790935662 -0.0404659063
      -0.0509732403 0. -0.0078189401 0. 0.00250316947 -0.00726373913
      0.00790935662 -0.0234718993 -0.00814690255 -0.0516443662 0.
      -0.0175215416 0. -0.0315740258 -0.0201205146 -0.0234718993
      -0.0087800473 0.00935844705 0.0182034336 0. -0.00850206614 0.
      0.0141420681 0.0085613681 -0.0087800473 0.0167874172 -0.0101633202
      -0.011733504 0. 0.00497730076 0. 0.0190082267 0.00783986226
      0.0167874172 0.0213970374 0.00746890251 0.0304858424 0.
      0.0027427678 0. 0.0293155741 0.00164704793 0.0213970374
      0.0102357334 0.0289857537 0.0247933958 0. 0.0305225942 0.
      0.00806576852 0.01269513 0.0102357334 0.0395321548 0.00478897011
      0.0143304234 0. 0.0141926575 0. 0.0565236211 0.0208960157
      0.0395321548 0.0134371687 -0.00930633768 0.0173255783 0.
      0.0146593265 0. -0.013582591 -0.0469048396 0.0134371687
      0.0271346308 0.0185680911 0.0273375642 0. -0.00381477945 0.
      0.0138798961 0.00562713668 0.0271346308 -0.0201091003
      -0.00106605876 0.0146259116 0. 0.0320790745 0. -0.0466466881
      -0.0230680164 -0.0201091003 -0.0200963765 0.0184722021
      0.0310435761 0. 0.0121439965 0. -0.0453157499 -0.0329839848
      -0.0200963765 -0.0670422241 0.027242044 0.0725461692 0.
      0.00612706132 0. -0.0888117999 -0.046421729 -0.0670422241
      -0.0446765758 0.0364192687 0.0306526907 0. -0.0271282941 0.
      -0.100129656 -0.0536278151 -0.0446765758 -0.0428578891 0.025974365
      0.0144516565 0. -0.0291607883 0. -0.0496100597 -0.0273772832
      -0.0428578891 0.0174067076 0.0168193243 0.0219316334 0.
      -0.000327804941 0. 0.0657514483 0.0421798192 0.0174067076
      -0.0829374567 0.0183799639 0.0173033457 0. -0.0207961965 0.
      -0.0588631853 -0.0351867266 -0.0829374567 -0.0625716969
      0.0410029329 0.0598279461 0. 0.0596081391 0. 0.0380735174
      0.00750956172 -0.0625716969 0.0935655609 0.0182631332
      0.00832040422 0. -0.0892211124 0. 0.0453568101 0.0126371766
      0.0935655609 0.00615935586 0.0194739997 0.0506232344 0.
      -0.00989527721 0. 0.0348812565 0.0107123936 0.00615935586
      0.00988660939 0.0154772513 0.0475993417 0. -0.0583607368 0.
      0.0224362351 0.00711985491 0.00988660939 -0.0161001552
      -0.00178387738 -0.0399904028 0. 0.0383980647 0. 0.00273989304
      -4.37551125e-06 -0.0161001552 0.0432684198 0.013724735
      0.0369546898 0. 0.0415822417 0. 0.0437296294 0.017778473
      0.0432684198 0.0461727343 -0.0389750823 -0.0733676627 0.
      0.0363588408 0. 0.0443305857 0.0434773974 0.0461727343
      -0.0333428532 -0.00438688369 -0.0263015311 0. 0.0103172241 0.
      -0.0166501682 -0.00459603639 -0.0333428532 -0.0259102341
      0.00688134367 -0.0182923842 0. -0.0076311091 0. 0.0240950584
      0.00817620009 -0.0259102341 0.00201781187 -0.0115792109
      -0.0192698874 0. 0.0240979195 0. 0.0783399865 0.0378200188
      0.00201781187 -0.0278607365 -0.00854452234 -0.0208782125 0.
      0.0253491644 0. 0.0162422992 0.00386837171 -0.0278607365
      -0.0388517603 0.011736922 0.00775028393 0. 0.0396319032 0.
      0.0383087806 0.0128223309 -0.0388517603 -0.0515630171 0.0125799943
      0.0140546514 0. -0.0147327501 0. -0.0060439026 0.00970771816
      -0.0515630171 0.0311065391 0.00272776443 0.00800994597 0.
      0.0240258351 0. 0.0267113429 0.00258752448 0.0311065391
      0.0426828563 0.00760383485 0.0288445856 0. -0.0318244658 0.
      -0.0240586121 -0.014305925 0.0426828563 -0.017448483 -0.0156314988
      -0.00417029392 0. -0.00694768317 0. -0.0189779401 0.00439542066
      -0.017448483 0.0177892242 -0.0150233852 -0.00758495973 0.
      -0.018711891 0. -0.0147807151 -0.0237261727 0.0177892242
      0.0134948278 -0.00419848226 0.0173258707 0. -0.063032262 0.
      -0.0192703344 -0.0241174344 0.0134948278 0.0384147689 0.0025009627
      0.00961597078 0. -0.0099119246 0. 0.00822689105 -0.0032558518
      0.0384147689 0.0508041531 -0.0162290018 0.021814419 0.
      -0.0539696701 0. -0.000994017348 -0.0400505476 0.0508041531
      0.0560769998 0.0103352526 0.0266822223 0. 0.0130684152 0.
      0.000726781669 -0.00720567536 0.0560769998 0.0305993278
      0.0194454584 0.0516319983 0. -0.00252110092 0. -0.0135045275
      -0.00379320607 0.0305993278 -0.0135648856 -0.00261965138
      0.0142756514 0. -0.050915435 0. -0.073218137 -0.0312857181
      -0.0135648856 0.0771457553 -0.0165636931 -0.0334971324 0.
      -0.0345603302 0. 0.0159167778 0.0064888089 0.0771457553
      0.0103389053 -0.0704456419 -0.100353308 0. -0.0922142342 0.
      -0.015802769 0.0076734121 0.0103389053 -0.0409208238 0.00739237992
      -0.0219355281 0. -0.0163153261 0. -0.056803681 -0.0213335901
      -0.0409208238 0.018769512 0.0149669098 0.0269426517 0.
      0.0183308423 0. 0.00793505646 0.00418076897 0.018769512
      -0.0361778215 -0.0406615771 -0.105446167 0. -0.1057439 0.
      -0.0340098068 0.0171714183 -0.0361778215 0.00496739708
      -0.0201218836 -0.0451497957 0. -0.0421746001 0. -0.0132867163
      -0.00996292382 0.00496739708 0.0184164252 0.0188493747
      0.0322837085 0. -0.0175355524 0. -0.0444735102 -0.016993409
      0.0184164252 -0.00290494226 -0.00131203397 -0.014378815 0.
      0.0176343266 0. 0.011136963 0.00422308454 -0.00290494226
      -0.0467330031 -0.0167539995 -0.0341488123 0. -0.0238115545 0.
      -0.032600712 -0.0212779436 -0.0467330031 -0.00100000354
      0.0249588601 0.00852458086 0. -0.0114470078 0. -0.0129157491
      -0.00433494104 -0.00100000354 -0.0186269712 -0.00153136032
      -0.00458240975 0. 0.00491699809 0. -0.0193855762 -0.00641845772
      -0.0186269712 0.000786363089 0.0145838428 0.0237755887 0.
      0.0551395416 0. 0.0307604354 0.0127597312 0.000786363089
      -0.0406181067 0.0132299298 0.00356130721 0. -0.020433642 0.
      -0.0286000799 -0.00901455898 -0.0406181067 0.0110558355
      0.0105511677 0.00119321677 0. 0.0162877589 0. 0.0152745759
      0.00967956334 0.0110558355 0.0143177807 0.0156434458 0.0359141454
      0. 0.0662074387 0. 0.0219484325 0.024267314 0.0143177807
      -0.0370498188 -0.0118874451 -0.0129109956 0. -0.045634225 0.
      -0.00753239309 0.00154723471 -0.0370498188 -0.0107776877
      0.0104157431 0.00636773789 0. 0.00387870101 0. 0.0229223147
      0.0127289612 -0.0107776877 0.00798123982 -0.00541247753
      -0.0479171984 0. -0.128041759 0. -0.0191125497 -0.00784254819
      0.00798123982 -0.0329930782 -0.0214852542 -0.0295977686 0.
      -0.000639985432 0. -0.00566588668 -0.00052863406 -0.0329930782
      0.011158145 -0.00898166373 -0.00964182429 0. -0.0392489769 0.
      -0.00106882874 -0.000883366214 0.011158145 -0.0267737936
      -0.0218945835 -0.0465493537 0. -0.0408032946 0. 0.0156247057
      0.0140499165 -0.0267737936 0.00285368017 -0.00435831724
      -0.00550994696 0. -0.0560306497 0. 0.0390553363 0.015001405
      0.00285368017 0.00131075713 0.0165109839 0.0223579779 0.
      -0.10058482 0. -0.0283292588 -0.0419377685 0.00131075713
      0.0558941886 0.0136585925 0.0382712111 0. 0.0168439876 0.
      0.00328285759 -0.00763710076 0.0558941886 -0.0241731219
      -0.00161600369 0.0183885824 0. -0.140355542 0. -0.0387298912
      -0.00483145844 -0.0241731219 -0.035491135 0.0114683323
      0.0184221584 0. -0.101383179 0. -0.00826834608 -0.0019497805
      -0.035491135 -0.0100168632 -0.0324405879 -0.0475710407 0.
      -0.066335313 0. 0.0129370894 0.00522457017 -0.0100168632
      -0.0235573556 -0.0424914025 -0.0919744521 0. 0.0080580283 0.
      -0.00817747228 0.0126911253 -0.0235573556 -0.0190204121
      -0.0271843802 -0.057411097 0. 0.0102089923 0. -0.00253484747
      0.0034713815 -0.0190204121 0.00378570962 0.00531121762
      -0.028081974 0. 0.0414880104 0. -0.0417402685 -0.0176943094
      0.00378570962 -0.0284636561 -0.0229286123 -0.0660687536 0.
      -0.0784391761 0. -0.0235480573 -3.3952314e-05 -0.0284636561
      -0.00852496177 -0.0228211395 -0.0513913482 0. -0.059521798 0.
      -0.00881258585 -0.00133247499 -0.00852496177 0.0128556648
      0.00514349574 -0.0386323184 0. -0.0400614254 0. -0.0297015235
      0.00689886278 0.0128556648 -0.0294858869 0.00370815257
      -0.0316188373 0. -0.0346811526 0. -0.0217543952 -0.0061302199
      -0.0294858869 -0.0208084118 -0.0152623234 -0.018321842 0.
      -0.014283021 0. 0.0100301681 0.00478962157 -0.0208084118
      -0.00937285274 0.0129927471 0.00890266523 0. 0.019664336 0.
      -0.00946624856 -0.00758814998 -0.00937285274 -0.0680496767
      -0.0188646242 -0.0659743175 0. 0.00497631775 0. -0.0284843408
      -0.0103459572 -0.0680496767 -0.0510572456 0.0223815832
      -0.035485968 0. 0.0481274165 0. -0.0240122546 -0.00590183213
      -0.0510572456 -0.0624525398 0.00203265785 0.00688346755 0.
      0.0242155176 0. -0.0392179564 -0.0132531403 -0.0624525398
      -0.0254733339 -0.00547887478 -0.0152883558 0. 0.0043592304 0.
      0.022607198 0.0245375969 -0.0254733339 -0.0312228352 0.0110863158
      -0.00403472409 0. 0.0615817718 0. -0.0334438793 -0.00967241358
      -0.0312228352 -0.0310779102 0.0122215264 -0.0115151033 0.
      -0.00546400575 0. -0.072630398 -0.0287182704 -0.0310779102
      -0.0223997105 2.30043988e-05 0.0177114271 0. -0.0135427378 0.
      0.037963286 0.0305846725 -0.0223997105 -0.0148310903
      -0.00525258947 -0.00600349391 0. -0.0856521726 0. -0.0066824127
      0.0277262274 -0.0148310903 -0.0316018015 0.00892768055
      -0.0044538076 0. -0.00180638209 0. -0.0728065893 -0.0311142784
      -0.0316018015 -0.0276441257 0.00641436921 0.0153428027 0.
      -0.00171290664 0. -0.0649493784 -0.0233525056 -0.0276441257
      -0.018255217 -0.00484055094 -0.0074219252 0. -0.0149570089 0.
      0.0036872807 0.0115441363 -0.018255217 0.0148256021 -0.00847025588
      0.00602020556 0. -0.041689638 0. 0.0279316772 0.0273740944
      0.0148256021 -0.0505463183 0.0119140325 0.0184514131 0.
      0.0125404913 0. -0.0143068032 -0.0108476207 -0.0505463183
      -0.000771171704 0.00560380192 0.0447008274 0. 0.0102500375 0.
      0.021621136 0.0197783597 -0.000771171704 0.0149285886
      -0.0136288106 0.00788116362 0. -0.00599908922 0. 0.0267125145
      0.0159971267 0.0149285886 -0.0411406271 0.00228862604
      -0.00131695659 0. -0.0892530829 0. -0.00173212274 -0.000172143307
      -0.0411406271 0.0158022959 -0.0105527136 0.0144370813 0.
      -0.0706498548 0. 0.0450369045 0.019327011 0.0158022959
      -0.00893557724 0.0133866882 0.0225907862 0. -0.0581414253 0.
      0.0212746356 0.00438003894 -0.00893557724 -0.0729758739
      -0.044897344 -0.0467746146 0. 0.0638455078 0. 0.0185070001
      0.01258294 -0.0729758739 -0.0905562043 0.00861467607 -0.0187976044
      0. 0.00227572396 0. -0.0377596989 -0.0263169147 -0.0905562043
      0.0183484443 0.015837891 0.0111503936 0. 0.102778137 0.
      0.0469348952 0.0158632714 0.0183484443 -0.0487317406 0.00891191419
      0.0589322485 0. 0.0941877738 0. 0.0564935058 0.0222038385
      -0.0487317406 -0.0976387039 0.0113354633 -0.0308458954 0.
      9.3586641e-05 0. 0.0135992393 0.00331154326 -0.0976387039
      -0.0784559548 -0.0200445354 -0.0619644597 0. -0.0319955423 0.
      0.0239106584 0.0135996398 -0.0784559548 -0.037766356 0.0127627896
      0.0102218166 0. 0.04082302 0. 0.0177666806 0.0263858829
      -0.037766356 -0.027128946 0.00162385567 0.00573178055 0.
      0.0686587319 0. -0.0150330896 0.00152284803 -0.027128946
      -0.0730012879 -0.0337723792 -0.0871077254 0. 0.0239823144 0.
      -0.0256015155 -0.0140426941 -0.0730012879 -0.0324554816
      -0.00629374012 -0.0419300236 0. 0.0754257366 0. 0.005269113
      0.0179165453 -0.0324554816 -0.0265745092 -0.0032437623
      -0.00996443629 0. 0.0864374116 0. -0.008437071 0.00647409493
      -0.0265745092 -0.0652502999 -0.0124305217 -0.036854066 0.
      0.05084287 0. -0.0110812085 -0.00347703299 -0.0652502999
      -0.0545475185 -0.00508746598 -0.0138248047 0. 0.0150530571 0.
      0.0238032285 0.0029893287 -0.0545475185 -0.0142597137
      -0.0268524811 -0.0482177958 0. 0.0198936593 0. -0.00829899497
      0.00572808506 -0.0142597137 -0.0724602118 -0.00395845901
      -0.0161401797 0. 0.0173477866 0. -0.0343101509 -0.0151864551
      -0.0724602118 -0.0281049069 -0.0123400604 -0.0497897007 0.
      0.0747785419 0. -0.00701696752 0.00439885352 -0.0281049069
      -0.030268088 -0.0190119632 -0.022003632 0. -0.00990465935 0.
      -0.0486147217 -0.009938973 -0.030268088 -0.031071512 -0.0126493666
      -0.0201551784 0. -0.00805693492 0. -0.0318572335 -0.0147830481
      -0.031071512 -0.0118767731 -0.0253098197 -0.0354502462 0.
      0.0268611219 0. 0.0351877883 0.0320010744 -0.0118767731
      -0.0246089958 -0.0171437692 -0.0176662114 0. 0.00480839051 0.
      0.00359314354 0.00858455431 -0.0246089958 -0.0431607738
      -0.0154743576 -0.0386483185 0. -0.0288108028 0. -0.0392977893
      -0.0137166902 -0.0431607738 -0.00134341873 0.00421628822
      0.0100971656 0. -0.00545854587 0. -0.00283429516 -0.00607806258
      -0.00134341873 -0.0585212447 -0.0173929315 -0.0194197353 0.
      -0.0295158681 0. -0.0115070902 -0.00628004782 -0.0585212447
      0.0171806905 0.0274378601 0.0406421497 0. 0.0379836112 0.
      0.0400106274 0.0224037226 0.0171806905 0.0081313923 0.0010649641
      0.00809156615 0. -0.0868318006 0. 0.00307029462 -0.00977729913
      0.0081313923 -0.0419544019 0.00672105467 0.0187605415 0.
      -0.0238086879 0. 0.00283146929 -0.00687159039 -0.0419544019
      0.0413183495 0.0241976045 0.0676704049 0. 0.0339084789 0.
      0.0380540341 0.0112004876 0.0413183495 0.0260604825 0.0200177357
      0.0608656444 0. 0.118105963 0. 0.0390444323 0.00623337971
      0.0260604825 0.0561872311 0.0247038286 0.06911695 0. 0.122213043
      0. 0.0459124036 0.0153431464 0.0561872311 -0.0272181835
      0.0214921404 0.0539615676 0. 0.051264625 0. 0.0273147225
      0.00370090548 -0.0272181835 0.0165090859 -0.0131956441
      0.00573585182 0. 0.0495802797 0. 0.0405098274 0.0211239234
      0.0165090859 -0.0675181299 -0.0615462065 -0.061758779 0.
      -0.0582882464 0. -0.029161403 -0.012895315 -0.0675181299
      -0.0416284949 0.0255875252 0.0280499514 0. 0.00894187856 0.
      -0.00290047331 -0.000134470029 -0.0416284949 -0.0530953854
      -0.0116568413 -0.0339690559 0. 0.0458418056 0. -0.032808762
      -0.0192194022 -0.0530953854 -0.0555587709 -0.00692657474
      0.0071360725 0. -0.0221961569 0. -0.0504388697 -0.0172171518
      -0.0555587709 0.0267093126 0.0270983763 0.0406603813 0.
      -0.00202795514 0. -0.00607733382 0.00546509493 0.0267093126
      -0.0392191447 -0.0226169899 -0.0673574358 0. 0.0222916901 0.
      -0.0360732153 -0.013848017 -0.0392191447 -0.0646440163
      -0.0156924222 -0.0539138205 0. 0.0262727272 0. -0.030796539
      -0.00600240706 -0.0646440163 0.070146285 0.00688744104
      0.0142210769 0. 0.0351216868 0. 0.0086021442 0.00181042508
      0.070146285 0.0710593164 -0.00175983505 -5.55467668e-05 0.
      0.0945142582 0. -0.00453182962 0.00256848824 0.0710593164
      -0.0481717698 -0.00251076277 -0.0165881068 0. 0.0312811173 0.
      -0.052946534 -0.0237272717 -0.0481717698 -0.0376344547
      -0.0211222861 -0.0416967347 0. 0.0395245999 0. -0.0443867855
      -0.0152565828 -0.0376344547 0.0509676524 0.000408851687
      -0.000413607282 0. 0.0150638269 0. -0.00700834673 0.000633232004
      0.0509676524 -0.00553923054 0.0156873073 0.010166958 0.
      0.00397413503 0. -0.0441786051 -0.0327520706 -0.00553923054
      -0.0257867314 -0.0263717175 -0.0116356686 0. 0.044725012 0.
      0.0288572442 0.0275040399 -0.0257867314 -0.0224744976
      -0.0142222438 -0.0524240509 0. 0.0161112789 0. -0.0213912297
      -0.0241593178 -0.0224744976 0.0196935907 0.0152011514 0.0243848003
      0. 0.0121561317 0. -0.0556244291 -0.0545002855 0.0196935907
      0.0255865343 -0.00261116703 -0.00705253147 0. -0.00528385863 0.
      -0.0469143577 -0.0137572596 0.0255865343 -0.0852298513
      -0.0212372914 -0.0377551541 0. -0.011276558 0. -0.0726199672
      -0.0327307992 -0.0852298513 0.0130690429 0.0281303767 0.0594539195
      0. 0.0719026551 0. 0.0453873463 0.00572032435 0.0130690429
      0.017821487 -0.00915943552 -0.00986978505 0. -0.00955749955 0.
      -0.0179582667 -0.00746206986 0.017821487 0.0801905096 0.0191175714
      0.0538682304 0. 0.103958853 0. 0.063237004 0.0173014868
      0.0801905096 0.018751381 0.0163817946 0.0484567359 0. -0.003752616
      0. 0.0320998654 0.00908980984 0.018751381 0.0160924159
      0.0229597017 0.0585177578 0. 0.132019594 0. 0.0525372885
      -0.000980297569 0.0160924159 0.0405180268 0.0186636541
      0.0508944429 0. 0.0867518708 0. 0.0526323915 -0.000414305716
      0.0405180268 0.0437297188 0.0319478698 0.0840950608 0. 0.19926095
      0. 0.0864401534 0.0333295651 0.0437297188</_>
    <_>
      0.00632569194 0.00526493136 0.00686824974 0. 0.0242347606 0.
      -0.0103281699 -0.00758703286 0.00632569194 0.00583803747
      0.00362750492 0.0113980165 0. 0.0223109759 0. 0.00900250487
      0.00663516205 0.00583803747 -0.0113392044 0.00223295088
      0.0152342245 0. 0.023746701 0. 0.00127676898 -0.00184801663
      -0.0113392044 -0.013858838 0.00895648636 0.0169309303 0.
      0.0331760012 0. 0.0173794888 0.00601471448 -0.013858838
      0.00604631985 0.00256312452 0.00942105614 0. 0.0386480168 0.
      0.0202574749 0.0108175222 0.00604631985 0.037151441 0.0145814735
      0.0365851 0. 0.0421228968 0. 0.0272121076 0.00911127683
      0.037151441 -0.0296385847 0.0124753192 0.0206003767 0.
      0.0400240123 0. 0.0250276364 0.0120916907 -0.0296385847
      -0.0279057715 -0.00182649691 -0.00573326135 0. 0.0104430132 0.
      -0.0182581097 -0.0074134348 -0.0279057715 0.0400586724
      0.0114979511 0.0290745124 0. 0.0328991599 0. 0.0194195397
      0.00693714106 0.0400586724 0.05291849 0.00988920778 0.0288459864
      0. 0.0447462015 0. 0.027178973 0.0120141795 0.05291849
      -0.0199497268 0.00765906367 0.0118227471 0. 0.0306686796 0.
      -0.000842141861 -0.00118516898 -0.0199497268 -0.0112870857
      0.00807448756 0.0152486283 0. 0.0381048545 0. 0.00969857443
      0.00252140057 -0.0112870857 0.0469964705 0.00656032795
      0.0196309444 0. 0.0545733646 0. 0.0298307016 0.0123023149
      0.0469964705 0.0464418828 0.00978791714 0.0279501788 0.
      0.0494115613 0. 0.0358922519 0.0136351818 0.0464418828
      -0.0204094592 -0.0024120321 -0.00158375583 0. 0.0344358087 0.
      0.0148329921 0.00494446326 -0.0204094592 0.000261549343
      0.00583304511 0.0196493529 0. 0.0314243287 0. 0.00186045852
      0.00765142031 0.000261549343 0.0405436344 0.00840292685
      0.0249694511 0. 0.0424740687 0. 0.0279726721 0.0101100998
      0.0405436344 0.0338561758 0.0110567911 0.032836929 0. 0.0456966981
      0. 0.0204881076 0.00710955868 0.0338561758 0.00198875973
      0.00797939952 0.0198598281 0. 0.0398658775 0. -0.0105465669
      -0.0101964893 0.00198875973 0.00190807914 0.0126228835
      0.0347539335 0. 0.0337173454 0. 0.00965804234 0.000814892119
      0.00190807914 0.0353774279 0.0148192495 0.0406558812 0.
      0.0670941696 0. 0.0212011598 0.00708505977 0.0353774279
      0.0222908873 0.00497377897 0.0135284942 0. 0.0360794663 0.
      0.0152571509 0.0052796239 0.0222908873 -0.0286989342 0.00805520732
      0.0293598101 0. 0.05412025 0. 0.042347312 0.012126931
      -0.0286989342 0.01043614 0.00499287434 0.0121353902 0.
      0.0231223945 0. 0.0100025712 0.00523637561 0.01043614 0.0382749774
      0.00838788133 0.0203506816 0. 0.0543460846 0. 0.0253992975
      0.00918075442 0.0382749774 0.0255773868 0.00809647795 0.0232067499
      0. 0.0359192006 0. 0.0242290813 0.00940056704 0.0255773868
      0.0329400338 0.0119477492 0.0254903845 0. -0.0068598669 0.
      0.0284918379 0.0145086991 0.0329400338 0.0179951303 0.00210567471
      0.00630096346 0. 0.0280454773 0. 0.0231839437 0.00986070465
      0.0179951303 -0.0140446899 -0.00940210465 -0.00602577953 0.
      0.0249748472 0. -0.0107855853 -0.011260814 -0.0140446899
      -0.00926120766 0.00523676211 0.00443377718 0. 0.0325027406 0.
      0.0265912358 0.00888632797 -0.00926120766 0.00650326442
      0.00360044185 0.0111250719 0. 0.018247135 0. 0.00570951914
      0.00261497125 0.00650326442 -0.0255775843 0.000455763511
      0.016854858 0. 0.00842977501 0. 0.00314039388 -0.00483565312
      -0.0255775843 -0.0134581532 0.0116342464 0.0169551075 0.
      0.0386201739 0. 0.0122881131 0.00474123703 -0.0134581532
      -0.0171189848 0.00805106293 0.0140729127 0. 0.0288937725 0.
      -0.00130839902 -0.00211519748 -0.0171189848 -0.0356076062
      -0.000419064541 0.00436291983 0. 0.00230206759 0. 0.00428270129
      7.76965098e-05 -0.0356076062 -0.0233517941 0.00917421374
      0.0102393534 0. 0.0323541686 0. 0.00584269268 0.00386730488
      -0.0233517941 -0.011510212 0.00375910616 0.0054171104 0.
      0.0311406255 0. 0.0044709174 -0.000125706021 -0.011510212
      -0.00394382561 0.00592361763 0.0150742987 0. 0.0431574695 0.
      0.000522067538 -0.000813174818 -0.00394382561 -0.0237933025
      0.0102890301 0.014999181 0. 0.0132515719 0. 0.00683225319
      0.00247863098 -0.0237933025 -0.0159534253 0.0116477506
      0.0215775874 0. 0.0325019546 0. 0.00834820326 0.00370139489
      -0.0159534253 -0.0097583672 -0.000575576036 0.00238116318 0.
      0.0322678722 0. 0.00476946961 0.000686258369 -0.0097583672
      -0.00293486333 0.00319570838 0.0198153313 0. 0.0266822726 0.
      0.00420232164 0.00373049849 -0.00293486333 -0.0179573558
      0.0076458971 0.0174839664 0. 0.0291181039 0. 0.0139680328
      0.00759202801 -0.0179573558 -0.00923953298 0.00904551148
      0.0142167108 0. 0.02219305 0. 0.00268618879 0.00772037031
      -0.00923953298 0.00177024305 0.00613829494 0.0170961227 0.
      0.0289045814 0. 0.00324209686 0.00260499539 0.00177024305
      0.018339131 0.00312383752 0.0080860462 0. 0.0340493619 0.
      0.000222143266 -0.000241191883 0.018339131 0.000118824777
      -0.00203282572 -0.00724285841 0. 0.00112293591 0. -0.0234857555
      -0.0135565838 0.000118824777 -0.00136749947 -0.00684805587
      -0.00804337114 0. 7.25302471e-06 0. -0.0152686257 -0.0205082987
      -0.00136749947 0.0149501851 0.00307023688 0.00686963834 0.
      0.0372418053 0. 0.0192685779 0.0077395048 0.0149501851
      0.00806476641 0.00543541601 0.0116367145 0. 0.0208187029 0.
      0.0201256163 0.00957869366 0.00806476641 -0.0219674725
      0.00224105408 -0.00254834699 0. -0.00390435429 0. -0.00922517572
      -0.0180528369 -0.0219674725 -0.0269301701 -0.00134337612
      -0.00170602207 0. 0.000505887787 0. 0.0078275241 0.00647616293
      -0.0269301701 0.00463847443 0.0109322444 0.0166553091 0.
      0.00985456165 0. 0.0200861767 0.0117303133 0.00463847443
      0.0214100871 0.00337155117 0.0100889504 0. 0.021055501 0.
      0.0191744659 0.00643511862 0.0214100871 -0.0466303378
      -0.0191117376 -0.0332633778 0. 0.0023324152 0. -0.0256411713
      -0.00687838765 -0.0466303378 -0.00260101445 0.00821332727
      0.00966570247 0. -0.00281193433 0. 0.0149638187 0.00519148447
      -0.00260101445 0.00284385914 0.00628741225 0.0188143272 0.
      0.0322976634 0. -0.00748078804 -0.00351479906 0.00284385914
      -0.0136519158 0.0131689915 0.024009956 0. 0.0243584793 0.
      -0.00954391435 -0.00556715671 -0.0136519158 -0.0209932309
      0.00024379103 0.00550098158 0. 0.00132028863 0. -0.00216410495
      -0.000495047425 -0.0209932309 -0.0228969343 -0.00674716057
      -0.00951786991 0. -0.0153721375 0. -0.0269856099 -0.00811368413
      -0.0228969343 -0.0434302576 0.010173291 0.0157169513 0.
      -0.0197811499 0. -0.00753031997 -0.0033756285 -0.0434302576
      -0.0040824539 0.00470925076 0.00628148811 0. 0.0310508534 0.
      -0.00454857666 0.00500258617 -0.0040824539 -0.000343205204
      0.00795748644 0.0120334225 0. -0.0181227997 0. -0.00908118859
      -0.00303478306 -0.000343205204 0.00502450159 0.0080046365
      0.0137109123 0. 0.017434638 0. 0.000685684558 0.000752804859
      0.00502450159 0.00134314294 0.00764924195 0.00234636245 0.
      0.0067981882 0. -0.0075970809 -0.00227291603 0.00134314294
      -0.011952104 0.00793203805 0.0191385485 0. 0.0275549106 0.
      0.0085193906 0.00411911216 -0.011952104 0.0157228671 0.0058046151
      0.0116621284 0. 0.00339487637 0. -0.00248950254 -0.000831951504
      0.0157228671 0.0149126919 0.00302160694 0.00791945029 0.
      0.0278770588 0. 0.00584721845 0.00207458786 0.0149126919
      -0.0162133239 0.00774735538 0.0205897857 0. 0.0224853363 0.
      0.0224717632 0.0112948241 -0.0162133239 0.00236735237 0.0021829044
      -0.00335033401 0. -0.0540613383 0. -0.00134779105 0.00207212917
      0.00236735237 0.0230366737 0.00266207382 0.00749605009 0.
      0.0200426597 0. 0.0046383827 0.00183146622 0.0230366737
      0.0434648246 0.00680649374 0.0100366361 0. -0.0070811538 0.
      0.000988742569 0.00135096698 0.0434648246 0.00629170006
      -0.00120809011 -0.00473546796 0. -0.00930353347 0. -0.0139294295
      -0.00334573514 0.00629170006 0.010336997 -0.00610241899
      -0.0155584728 0. -0.00808604434 0. -0.0109797567 -0.009272906
      0.010336997 0.0233920272 0.00103712571 0.00386605458 0.
      -0.0115256393 0. -0.00305287703 0.00264559314 0.0233920272
      0.0129218968 -0.00173113646 -0.0152407764 0. -0.0143762631 0.
      -0.0223852135 -0.0102130799 0.0129218968 0.00358127174
      -0.00373273785 -0.0115055442 0. -0.00153074309 0. -0.00510429591
      -0.000960806967 0.00358127174 -0.0140745714 -0.00504726544
      -0.0146369385 0. -0.00900747254 0. -0.00244567008 0.000987539184
      -0.0140745714 0.00473279878 0.00221625739 -0.00114650407 0.
      -0.00671951286 0. -0.0169288106 -0.00655537751 0.00473279878
      -0.00505490322 0.00310930982 0.00989457034 0. -0.0060229958 0.
      -0.000111218047 0.00599568058 -0.00505490322 -0.0276792832
      -0.0196066312 -0.0278132223 0. -0.00726859365 0. -0.0234338772
      -0.00470711105 -0.0276792832 0.00956300553 0.00232703588
      0.00696336478 0. -0.00330624799 0. 0.0107903369 0.00399482483
      0.00956300553 -0.0181631465 0.000464107463 0.002283921 0.
      -0.00183531037 0. -0.000543276488 -0.00131725951 -0.0181631465
      0.017939264 0.00346226688 0.0103604048 0. 0.0161877759 0.
      0.00455705356 0.00242931815 0.017939264 -0.00186672865
      -0.00766704092 -0.00804600213 0. -0.00994068105 0. 0.0102315843
      0.00620496133 -0.00186672865 0.0115972674 -0.00837687682
      -0.0100522321 0. 0.00807036366 0. 0.0104829557 0.00377806905
      0.0115972674 -0.00996481907 -0.0132064 -0.0224447027 0.
      -0.0219583046 0. -0.0174916405 -0.00469308626 -0.00996481907
      0.00798989553 -0.0129533112 -0.0147462767 0. -0.00240244996 0.
      0.00179383298 0.00328603946 0.00798989553 0.00473332684
      -0.0183314513 -0.0222329441 0. -0.00555614941 0. -0.00858893339
      -0.00332105882 0.00473332684 0.0139807025 0.00338892872
      0.00974666979 0. 0.0214651506 0. 0.00651285518 0.00311262952
      0.0139807025 -0.000952599337 -0.00719937542 -0.00674862834 0.
      0.00354342069 0. 0.0080965478 0.00749809947 -0.000952599337
      0.0124550713 0.0041306722 0.0106227295 0. 0.021305114 0.
      0.0115996115 0.00390324928 0.0124550713 0.021026982 0.00464027841
      -0.00574986031 0. 0.00125540316 0. -0.00766868424 -0.00256274664
      0.021026982 0.0236506853 0.00525197666 0.015545113 0. 0.024468109
      0. 0.00851265248 0.00395733351 0.0236506853 0.00426054932
      0.0038063142 0.0113899279 0. 0.0199664123 0. -0.000314650795
      9.93590875e-05 0.00426054932 0.0375460945 0.0136863971
      0.0250892136 0. 0.0297452901 0. 0.0204259772 0.00726733683
      0.0375460945 0.0242228154 0.00560028572 0.0167581607 0.
      0.0212276429 0. 0.00958874729 0.00347135263 0.0242228154
      0.047101412 0.00266223005 0.00908823684 0. 0.0109008271 0.
      0.0166170634 0.00959313195 0.047101412 0.0370546095 0.0109795611
      0.0263655502 0. 0.0320119336 0. 0.0224182736 0.00787608791
      0.0370546095 0.0213206746 0.0127373235 0.0262442548 0.
      -0.0325491056 0. 0.0417842753 0.0181806982 0.0213206746
      0.0428634994 0.00687465258 0.0194648355 0. 0.00930725411 0.
      0.00568039343 0.00611742539 0.0428634994 0.0154837314
      0.00621209154 0.010300708 0. -0.0356594101 0. -0.0386096872
      -0.0233127996 0.0154837314 0.0254654028 0.00591837009 0.0144638466
      0. 0.00481571164 0. 0.0254929494 0.0104667973 0.0254654028
      -0.00385297975 -0.00940524414 -0.0305955913 0. -0.046964772 0.
      -0.0371633805 -0.0135566974 -0.00385297975 0.0141028482
      0.0107402662 0.0275195986 0. -0.0162993353 0. -0.0263278317
      -0.0124264602 0.0141028482 0.0138400132 0.0109008355 0.0258791111
      0. -0.0104722707 0. 0.0130967451 0.00667282287 0.0138400132
      -0.0104406038 -0.00548734237 -0.0175613929 0. -0.0353748612 0.
      -0.0191046856 -0.0165570155 -0.0104406038 0.0125363199
      0.00482898485 0.00547343725 0. -0.0127716558 0. -0.0147321755
      -0.00596293062 0.0125363199 -0.0207029041 0.00493270624
      0.00721172011 0. -0.0337354355 0. -0.00423413794 -0.00423088297
      -0.0207029041 0.0062463861 0.00577945402 0.015898915 0.
      0.005766897 0. 0.00188432634 0.00127048302 0.0062463861
      0.00504398532 0.00276991422 0.00422186404 0. -0.0301253758 0.
      -0.00766347861 0.00624266453 0.00504398532 0.0140647609
      0.00590448221 0.013721073 0. 0.0177054983 0. 0.0124486154
      0.00417312421 0.0140647609 -0.00378319668 -0.0107620209
      -0.0289629735 0. -0.0245418698 0. -0.0298708975 -0.0120304767
      -0.00378319668 -0.00133306009 -0.0026669465 -0.0102929967 0.
      0.00981274154 0. -0.0217377003 -0.0061631822 -0.00133306009
      0.010618194 -0.0109011009 -0.0249602366 0. -0.00293070241 0.
      -0.010997016 -0.00495706359 0.010618194 0.0112917256
      0.000694136252 -0.0159181338 0. 0.00321858958 0. -0.01757746
      -0.00348756486 0.0112917256 -0.0135376202 3.47213208e-05
      -0.00407804595 0. 0.00949472561 0. -0.00379571225 -0.00107609702
      -0.0135376202 0.000658344652 0.0082425978 0.0215784181 0.
      0.0253758896 0. 0.0214301515 0.00788917858 0.000658344652
      -0.00111985754 -0.00654252339 -0.0185196064 0. 0.00623695599 0.
      -0.0148245981 0.000327785849 -0.00111985754 0.0183373988
      0.022058744 0.0322070569 0. 0.0297961291 0. 0.0116568515
      0.00413419213 0.0183373988 0.00121223205 0.012604312 0.0356071629
      0. 0.00490678754 0. 0.0214080047 0.00870990846 0.00121223205
      0.0305412393 0.00989340805 0.0239394791 0. 0.0304830261 0.
      0.0194588527 0.0104133235 0.0305412393 0.0055477689 0.00988338329
      0.028489735 0. -0.00859904941 0. 0.0119189098 0.00398309575
      0.0055477689 0.0390674621 0.0259192847 0.0342427604 0.
      0.0462210551 0. 0.0282070152 0.011368461 0.0390674621 0.0290981177
      0.00738052372 0.0216224771 0. 0.0385011435 0. 0.0233580768
      0.00827201456 0.0290981177 0.0177880488 0.00931321084 0.024595866
      0. -0.0286867395 0. 0.0406803228 0.0232172813 0.0177880488
      0.0449685045 0.0177828819 0.0411268435 0. 0.0388435908 0.
      0.0248209722 0.00843453314 0.0449685045 0.0253974441 0.0232761391
      0.0401394665 0. -0.0397194736 0. 0.0125996135 0.00528759323
      0.0253974441 0.0270516705 0.00706800912 0.0177712683 0.
      0.00648315251 0. 0.0350172259 0.0165168326 0.0270516705
      -0.0196671095 -0.0116260396 -0.0374523476 0. -0.0342539437 0.
      -0.030011829 -0.00661588553 -0.0196671095 0.0287130587
      0.0217676908 0.0421208404 0. 0.00368347112 0. 0.0128039205
      0.00583969196 0.0287130587 -0.020865513 -0.00483908085
      -0.0154859712 0. -0.0332781523 0. -0.0304526966 -0.0262028202
      -0.020865513 0.0016231687 -0.00665127998 -0.0241128262 0.
      -0.0203274209 0. -0.0201436207 -0.013013415 0.0016231687
      0.0214206446 0.000588541268 -0.000519331719 0. -0.013233183 0.
      -0.0147789847 -0.000962644699 0.0214206446 -0.00833539572
      -0.000422136247 -0.00571950851 0. -0.0255162157 0. -0.0136706643
      -0.0228484459 -0.00833539572 0.0098579498 -0.00143709115
      -0.00124907598 0. -0.0115475003 0. -0.00160033372 0.00026722168
      0.0098579498 0.0241982024 -0.00307390396 -0.015315704 0.
      -0.0418491699 0. -0.00277011399 -0.000559298322 0.0241982024
      0.00734902825 0.00341316406 0.00827514194 0. 0.0164806787 0.
      0.010396691 0.00410659285 0.00734902825 -0.00555318175
      -0.0159350503 -0.0225107074 0. -0.0494264327 0. -0.00334450277
      0.00119836349 -0.00555318175 0.00525493454 0.0039083804
      0.00844396837 0. 0.000106574436 0. 0.0164835099 0.00931812637
      0.00525493454 0.0164024346 4.28120256e-05 -0.00904876832 0.
      0.00222475431 0. -0.0106459772 -0.00247709919 0.0164024346
      0.0157489907 -0.00148145005 -0.0204125028 0. -0.0193858426 0.
      -0.0181758087 -0.00504624518 0.0157489907 0.0217389148
      0.00425525941 -0.00209189882 0. 0.00769473054 0. -0.0153687252
      -0.00512034586 0.0217389148 0.0229151398 0.00420057913
      -0.000812257931 0. -0.0174988844 0. -0.0221929587 -0.0056924168
      0.0229151398 0.0138471043 -0.00548935356 -0.0238707028 0.
      -0.00789785292 0. -0.0121089304 -0.00297994725 0.0138471043
      0.00576192839 0.00673421705 0.0118084121 0. 0.0346672945 0.
      0.0193231199 0.00727715949 0.00576192839 0.0167671908
      -0.00066420529 -0.0125759579 0. -0.0134912943 0. -0.0104707088
      0.000858089828 0.0167671908 0.000156630209 -0.0171050187
      -0.0155257918 0. 0.00987570919 0. 0.0112558957 0.00795930158
      0.000156630209 -0.00419811439 0.00531014754 0.0117701329 0.
      0.036680609 0. 0.0192306899 0.00642657187 -0.00419811439
      -0.0151088936 0.0112596806 0.0196782947 0. 0.0415140502 0.
      0.0314688869 0.0166858267 -0.0151088936 -0.0175145194
      -0.00817534514 -0.0206986647 0. 0.00776999397 0. 0.0271022636
      0.0165372845 -0.0175145194 -0.0261324868 -0.00718787499
      -0.0250665154 0. -0.0179672856 0. 0.0232915524 0.0133404341
      -0.0261324868 -0.0066095884 0.00880786218 0.0243207719 0.
      0.0331705771 0. 0.0281384662 0.0110383248 -0.0066095884
      0.0113141127 0.00976821501 0.025497105 0. 0.0276114959 0.
      0.0074959998 0.00366778322 0.0113141127 -0.0316243656
      0.000688933709 0.00142398651 0. 0.00287999795 0. -0.00104988425
      -0.00140572002 -0.0316243656 -0.0247707516 -0.000532836304
      -0.00394508243 0. -0.00691701472 0. -0.0171751454 -0.00284198369
      -0.0247707516 0.0210043322 0.011898621 0.0238013472 0.
      -0.00676139258 0. 0.00226947595 0.00135092798 0.0210043322
      0.00625860365 -0.00115829846 -0.00356532657 0. -0.0361332595 0.
      -0.0427497178 -0.0272980053 0.00625860365 0.0119608566
      -0.000434535788 -0.00130031526 0. -0.0137137454 0. 0.00163221231
      0.0168526378 0.0119608566 0.0216308814 -0.00257003959
      -0.00942038465 0. -0.0399494693 0. -0.0430720709 -0.0224568993
      0.0216308814 -3.80388883e-05 -0.00443688268 -0.00970757473 0.
      -0.0397728868 0. -0.0497540273 -0.0358014219 -3.80388883e-05
      0.00825143326 -0.00420325575 -0.00431660237 0. -0.0208262801 0.
      -0.00732251722 -0.00411863765 0.00825143326 0.011579724
      0.000193502114 -0.00151635672 0. -0.0333261527 0. -0.0441331677
      -0.0271290075 0.011579724 0.0215165075 0.00948433857 0.0229273438
      0. -0.00111666403 0. 0.018578168 0.00924730953 0.0215165075
      -0.0216740128 -0.0413887873 -0.0443869531 0. -0.0607347749 0.
      -0.0126165431 -0.00327494345 -0.0216740128 -0.00105602061
      0.00304924906 0.00912449323 0. 0.000654210977 0. 0.01929239
      0.0073729381 -0.00105602061 0.0165782422 0.0102132596 0.0231690686
      0. -0.00133688236 0. 0.0349307097 0.015820669 0.0165782422
      0.0136148743 0.00949679315 0.0275214501 0. 0.0163733326 0.
      0.0295741092 0.0140631385 0.0136148743 0.00958051812 0.00758294435
      0.00951034389 0. 0.0149058439 0. -0.00594483456 -0.00198117457
      0.00958051812 0.00387299689 0.00577062042 0.00748797785 0.
      -0.0176334027 0. -0.0235804841 -0.00975453295 0.00387299689
      -0.00527328392 0.000372253766 0.00677573355 0. 0.0015153375 0.
      -0.00469517894 -0.00184273568 -0.00527328392 -0.00170394778
      0.0115319332 -0.000258637272 0. -0.00950682629 0. -0.0132787134
      -0.00199342775 -0.00170394778 0.016636841 0.0103268316
      0.0164582394 0. 0.00512749981 0. -0.00843571126 -0.00279449462
      0.016636841 -0.00840713549 -0.00552182598 -0.0143904351 0.
      -0.0120819723 0. 0.00560785504 -0.000376929209 -0.00840713549
      0.00993825402 0.0088516809 0.00395525852 0. -0.00891200546 0.
      -0.00400509173 0.00488267932 0.00993825402 -0.0251616202
      -0.00463293772 -0.016213309 0. -0.0325759798 0. -0.0224413946
      -0.00982948951 -0.0251616202 0.0108042434 -0.00551008759
      -0.0152797531 0. -0.0124319019 0. 0.0148742246 0.00863168761
      0.0108042434 -0.01098134 -0.00529829506 -0.0166176595 0.
      -0.0221376307 0. 0.00891864207 0.0176190585 -0.01098134
      -0.0142658036 0.00106325897 0.00281007332 0. -0.029205706 0.
      -0.0222573336 -0.00759630278 -0.0142658036 -0.0272177588
      0.000947801687 -7.22552722e-05 0. -0.0344130173 0. -0.0296034347
      -0.00637040939 -0.0272177588 -0.0145832524 -0.00471297884
      -0.0141167687 0. -0.0201075226 0. 0.00214437977 0.00393306231
      -0.0145832524 -0.00181635446 -0.00759182032 -0.0222858246 0.
      -0.0181370396 0. -0.00491536735 0.00830228161 -0.00181635446
      -0.0110471584 -0.00739775039 -0.0161999594 0. -0.0275795273 0.
      -0.0222765394 -0.00132066011 -0.0110471584 0.016033344
      -0.0138084413 -0.0219268948 0. -0.00330895162 0. -0.01248811
      -0.00820703246 0.016033344 0.00463524554 -0.00291524152
      -0.00912216213 0. -0.0191958211 0. 0.00571256783 0.0164481215
      0.00463524554 0.0232020672 9.65959771e-05 -0.00185636 0.
      -0.026330376 0. -0.0124536976 -0.00244902819 0.0232020672
      0.0181676708 -0.0203254968 -0.0222570747 0. -0.00795131922 0.
      -0.0197679047 -0.00877136365 0.0181676708 0.00674014771
      -0.0121006276 -0.0230458248 0. -0.0481277034 0. -0.0162148643
      -0.01245989 0.00674014771 -0.00447004847 -0.00518412562
      -0.0173523035 0. -0.0374685787 0. -0.0420919247 -0.0290742125
      -0.00447004847 0.0130579714 0.0099770166 0.0228257421 0.
      0.00407684175 0. 0.0162374172 0.00795197394 0.0130579714
      -0.00562815182 -0.0181618948 -0.027188817 0. -0.0597101785 0.
      -0.0245931651 -0.0181075186 -0.00562815182 0.0356429219
      0.0103011159 0.0298760887 0. 0.00812597107 0. 0.0256253555
      0.0110559687 0.0356429219 -0.00257194927 0.00237984909
      0.00632057618 0. -0.0411848165 0. 0.0407408848 0.0151610207
      -0.00257194927 0.0233014692 0.00895293895 0.022168275 0.
      0.0280385166 0. 0.0332678854 0.0126949614 0.0233014692
      0.0388824083 0.0144442897 0.0375178419 0. 0.0692658499 0.
      0.0372901484 0.0151722096 0.0388824083 0.0436939746 0.0115733705
      0.0305159185 0. 0.0668338686 0. 0.0494198501 0.0193343274
      0.0436939746</_>
    <_>
      0.00791716389 0.00462837052 0.00329627702 0. 0.00938399695 0.
      -0.010065686 -0.00281763403 0.00791716389 -0.00114316563
      0.00222622743 0.00752758142 0. 0.0182668697 0. -0.00414237287
      0.0018576833 -0.00114316563 -0.0139207803 -0.00983110536
      -0.0177703407 0. -0.0241087321 0. -0.0120277908 -0.00723039173
      -0.0139207803 -0.00629223324 -0.00219448889 2.02476676e-05 0.
      0.0146501148 0. 0.00225640787 0.00101875386 -0.00629223324
      -0.00372980046 0.00166836986 0.00865973718 0. 0.0261314493 0.
      0.00649616867 0.00327048567 -0.00372980046 0.0306568686
      0.0119346036 0.0354082994 0. 0.0424051844 0. 0.0197704565
      0.00770439114 0.0306568686 -0.0189525373 0.0051951115 0.0114865955
      0. 0.0285678674 0. 0.00487424247 0.0033118499 -0.0189525373
      -0.0325840823 -0.0158765912 -0.0217082836 0. 0.0258417968 0.
      -0.0245866682 -0.00991468411 -0.0325840823 0.0275775809
      0.00939299259 0.0281073116 0. 0.0263375044 0. 0.0166611634
      0.00567450095 0.0275775809 0.039795205 0.0153160738 0.0432620905
      0. 0.0686406344 0. 0.042365782 0.0207378697 0.039795205
      -0.0391496792 -0.00669691712 -0.0165943932 0. 0.0393691994 0.
      -0.0142309032 -0.00671898853 -0.0391496792 -0.0131946281
      0.0050007361 0.0161424596 0. 0.070513472 0. -0.00206057308
      -0.00261584111 -0.0131946281 0.0345742181 0.0115153613
      0.0332337692 0. 0.0554532409 0. 0.0285842344 0.00986920763
      0.0345742181 0.0399646312 0.0150516098 0.03905854 0. 0.0514979698
      0. 0.0408520512 0.0170098897 0.0399646312 -0.0201861933
      -0.00160702504 0.00147174939 0. 0.0582102984 0. -0.00306608481
      -0.00280276919 -0.0201861933 -0.0182413608 0.00417473167
      0.020243654 0. 0.0425699763 0. -0.000225678174 0.00139757898
      -0.0182413608 0.0352915786 0.00878100842 0.0243902989 0.
      0.0461939014 0. 0.0413582698 0.0159077477 0.0352915786
      0.0335359313 0.00968262274 0.0261059236 0. 0.0473985113 0.
      0.0330132656 0.0110994419 0.0335359313 -0.0209120978 0.00579601852
      0.0168064795 0. 0.0457801074 0. -0.0120073929 -0.010221363
      -0.0209120978 -0.00345484912 0.0144154364 0.0399082974 0.
      0.0413218588 0. 0.0186201856 0.0117220758 -0.00345484912
      0.0320840739 0.0126460688 0.0309483018 0. 0.0402297974 0.
      0.0220648665 0.00785874669 0.0320840739 0.0119183687 0.00752353622
      0.0160495322 0. 0.0268494133 0. 0.00785750803 0.00262584235
      0.0119183687 -0.0164666846 0.0142942453 0.0394143611 0.
      0.0568639785 0. 0.037141066 0.0210461766 -0.0164666846
      0.0140620247 0.00278171711 0.00498249196 0. 0.0265376978 0.
      0.00170657749 0.000788471196 0.0140620247 0.0206685401
      0.0144814216 0.023569718 0. 0.0343534872 0. 0.0110985292
      0.00372414244 0.0206685401 0.00796222873 0.0013295348
      0.00397846475 0. 0.00946096797 0. 0.00293668243 0.000981388148
      0.00796222873 0.0371955149 0.0146425953 0.0330294929 0.
      -0.00456978614 0. 0.0277373344 0.0110685686 0.0371955149
      0.0140767274 0.00638640579 0.0128304847 0. 0.0172375403 0.
      0.0120744873 0.00614051428 0.0140767274 -0.0265026558
      -0.0191430952 -0.0273682065 0. -0.0247578118 0. -0.024854498
      -0.0157303475 -0.0265026558 -0.0162449013 -0.0027900706
      -0.00507935556 0. 0.05073357 0. 0.0152723147 0.00828807801
      -0.0162449013 0.00690341368 0.00311971456 0.00942133926 0.
      -0.00212575519 0. 0.00417134538 0.00149163732 0.00690341368
      -0.0141254542 -0.00146028656 -0.0058088908 0. 0.000922883919 0.
      0.00464613363 -0.00395956356 -0.0141254542 -0.0202744976
      0.0031722819 0.00636317488 0. 0.0249219835 0. 0.0035499474
      0.00162725674 -0.0202744976 -0.0430280752 -0.00254291343
      -0.00822527707 0. 0.0322185941 0. -0.00780691998 -0.00452957954
      -0.0430280752 -0.0219360497 -0.00313954893 -0.00590290222 0.
      -0.000389291672 0. 0.0105193704 0.00411850912 -0.0219360497
      -0.0365748629 -0.00142957165 -0.00485865539 0. 0.0314292759 0.
      0.0100987004 0.00300675794 -0.0365748629 -0.0374901965
      -0.00611374853 -0.0151586412 0. 0.0441347733 0. -0.0136915082
      -0.0063745589 -0.0374901965 0.0141252046 -0.0026033856
      -0.000467670296 0. 0.0821314231 0. -0.00159212179 0.000962574792
      0.0141252046 -0.0464089252 -0.00120393536 -0.00371552142 0.
      0.0156895798 0. 0.00154996105 0.000598032726 -0.0464089252
      -0.0325467624 -0.00115553604 -0.00267843995 0. 0.0397745855 0.
      -0.00204861537 -0.000954100571 -0.0325467624 0.00542571535
      -0.00499501312 -0.0104775215 0. 0.0604566373 0. -0.00756285945
      -0.00302708964 0.00542571535 -0.011247796 0.00360887265
      0.0160891898 0. 0.0462008119 0. 0.00338478968 0.0020808659
      -0.011247796 -0.0338273831 0.00250011706 0.00534776971 0.
      0.0316658132 0. -0.0010775975 -0.000360110629 -0.0338273831
      -0.0328895226 0.0112141371 0.0194300357 0. 0.0320470184 0.
      -0.0100261243 -0.00203165109 -0.0328895226 -0.0189859699
      0.00392344361 0.0117213791 0. 0.0330260396 0. -0.00581133598
      -0.00200188509 -0.0189859699 0.0168562643 0.0114813559
      0.0306554828 0. 0.0399230197 0. 0.0143342409 0.014913762
      0.0168562643 -0.0151497591 -0.00320556667 -0.0161177516 0.
      -0.00332575315 0. -0.0343439989 -0.0172281675 -0.0151497591
      -0.0121329268 0.00509197963 0.00782586355 0. 0.00815126486 0.
      -0.0126556437 -0.0173452497 -0.0121329268 0.0179927386
      0.00719126407 0.019527873 0. 0.034694314 0. 0.0263173245
      0.0119868694 0.0179927386 0.0152437622 0.00347421109 0.00886598323
      0. 0.0322008617 0. 0.0142876329 0.0055788313 0.0152437622
      -0.028063152 0.00671636267 0.00660597673 0. -0.0126093682 0.
      -0.022617463 -0.0230721757 -0.028063152 -0.0246303715
      -0.00125205622 -0.00234437082 0. 0.00499185687 0. -0.0041576908
      0.00112131261 -0.0246303715 0.014494488 0.00618907763 0.0135442214
      0. 0.0247311927 0. 0.0154441372 0.00597248459 0.014494488
      0.00683767674 0.00241508917 0.00722685456 0. 0.0162796415 0.
      0.0050974451 0.00170347898 0.00683767674 -0.0444876105
      -0.0140481852 -0.0323981121 0. -0.011657591 0. -0.0233912338
      0.00060221029 -0.0444876105 -0.0243889764 7.31788023e-05
      -0.000986072933 0. -0.0101087382 0. 0.00155893352 0.000520968577
      -0.0243889764 0.012337938 0.004795691 0.00924651884 0.
      0.0103490874 0. -0.00337361638 -0.00207531196 0.012337938
      -0.00538218766 -0.00142043526 -0.00466782833 0. -0.00145395577 0.
      -0.0113641666 -0.00416529877 -0.00538218766 0.00551278749
      -0.00664507458 -0.0207443107 0. -0.00724636437 0. 0.0249474887
      0.0102124382 0.00551278749 0.00151186809 -0.0104708932
      -0.00813100953 0. -0.0178352837 0. -0.00754663814 -0.000121227946
      0.00151186809 -0.0217718817 -0.00141086127 0.00082981505 0.
      -0.0268726982 0. -0.000865946407 -0.000418902462 -0.0217718817
      -0.0094722081 0.00022447668 0.000872411067 0. 0.0185536835 0.
      -0.00897356961 -0.00308403 -0.0094722081 0.0207155962
      -0.000568690768 0.00321073015 0. -0.0205492731 0. -0.00228438503
      0.00101620646 0.0207155962 0.0187541507 0.000606194662
      -0.00106730149 0. 0.00276416889 0. 0.0017395633 0.000905992463
      0.0187541507 -0.0215602871 0.00154702133 0.0027207376 0.
      0.0221080408 0. -0.00803450588 -0.00217239745 -0.0215602871
      -0.0191693641 0.00188979111 0.00593570806 0. 0.012631773 0.
      0.0049620904 0.00129217387 -0.0191693641 0.00659907889
      0.000136606395 -0.00455392478 0. 0.0199641846 0. -0.00315532531
      -0.000948347151 0.00659907889 0.00783123262 0.00651387498
      0.0168952662 0. 0.0224158503 0. 0.0084860092 0.00301755592
      0.00783123262 -0.0223699436 0.0046369764 0.0113257281 0.
      0.00337962457 0. 0.00126401335 0.000422413083 -0.0223699436
      -0.00327653857 0.0137432422 0.0216076318 0. -0.0384006388 0.
      -0.00334518519 -0.00662678853 -0.00327653857 0.00827407837
      0.0040759379 0.012196742 0. 0.0150265703 0. 0.00792641379
      0.00272227498 0.00827407837 0.0141722457 0.00563612999
      0.0168062709 0. 0.00939348619 0. 0.00176341517 0.00132933201
      0.0141722457 0.00387010607 0.00117994123 -0.00389137329 0.
      -0.0169280954 0. -0.032049153 -0.0107279532 0.00387010607
      0.00730258366 0.00250311801 -0.00586800231 0. -0.00167781196 0.
      -0.0176782291 -0.012362577 0.00730258366 0.018883856 0.00071643875
      0.00146208075 0. -0.0122983018 0. -0.00713284547 -0.00127170142
      0.018883856 0.0197765343 -0.00405939948 -0.0133940373 0.
      0.000488978694 0. -0.0165102724 -0.0119223827 0.0197765343
      -0.00688450597 0.000376154028 -0.0042455513 0. -0.00170765747 0.
      -0.00344324042 -0.00146313524 -0.00688450597 -0.021642277
      -0.00498214131 -0.0135982214 0. -0.00130146043 0. 0.00135920977
      0.00326945493 -0.021642277 0.00675867917 0.00598213868
      0.00206592795 0. 0.00707253255 0. -0.00186658127 0.00205391576
      0.00675867917 -0.0110150566 0.00271714898 0.00253569894 0.
      -0.00275213807 0. 0.00107453926 0.00669919606 -0.0110150566
      -0.0341425091 -0.0154279592 -0.0343732424 0. 0.00771416398 0.
      -0.0212482736 -0.00226507382 -0.0341425091 -0.00949379336
      0.00195281033 0.000839995511 0. -0.0134038115 0. 0.000453092041
      0.000151415661 -0.00949379336 -0.0220741723 0.00184423523
      -0.00233313907 0. 0.0170894135 0. -0.00857122894 0.00574947009
      -0.0220741723 -0.00843818951 0.000253308885 0.000758000533 0.
      -0.00580308167 0. 0.000506617711 0.00197621621 -0.00843818951
      -0.0122226337 -0.011358019 -0.0248779505 0. -0.00959463418 0.
      0.00758581236 0.00447399355 -0.0122226337 0.0121196862
      -0.00344475149 0.000481377967 0. 0.00851722434 0. 0.0188248195
      0.00748726446 0.0121196862 -0.0262541492 -0.00958202779
      -0.0143608199 0. -0.0144110415 0. -0.0127447071 -0.00382508803
      -0.0262541492 0.0118072284 0.00762372417 0.0156177003 0.
      0.0125429686 0. 0.0153928595 0.00558873173 0.0118072284
      0.0138382064 -0.0122902524 0.00141712721 0. -0.00620870665 0.
      0.0022709812 0.00104770612 0.0138382064 0.0117876912
      -0.00112001156 -0.0033815999 0. 0.0121587105 0. -0.00358065241
      -0.0010834072 0.0117876912 0.0126516381 0.006643706 0.0245229974
      0. 0.0165196583 0. 0.0109316083 0.00378808868 0.0126516381
      0.00947128609 0.00812664628 0.0161600728 0. 0.0192197952 0.
      -0.000506145123 7.17093371e-06 0.00947128609 0.027315734
      -0.00794965681 -0.0239023082 0. 0.00909321848 0. 4.23974234e-05
      0.000703211816 0.027315734 0.0155293755 0.00535394903 0.0160162244
      0. 0.0263355672 0. 0.0117233824 0.0051310733 0.0155293755
      0.00739342859 0.00229548151 0.00338481041 0. -0.00308240927 0.
      -0.00439748075 -0.00136702741 0.00739342859 0.0240689963
      0.00481423363 0.0143288979 0. 0.0309513137 0. 0.019821465
      0.00734566012 0.0240689963 0.014298575 0.00295234821 0.00883453991
      0. 0.0179638881 0. 0.012075251 0.00475702761 0.014298575
      0.0231893715 0.00538146868 0.0132851917 0. 0.00867549703 0.
      0.0149103887 0.00651762262 0.0231893715 0.0270466357 0.0038553318
      0.0115366019 0. 0.0225486364 0. 0.020563243 0.00891334563
      0.0270466357 0.000456302165 0.00704091555 0.0174306631 0.
      -0.036483001 0. 0.0259221923 0.0117761604 0.000456302165
      0.0208383854 0.00334583921 0.00951948855 0. 0.00199690554 0.
      0.00459933328 0.00197428302 0.0208383854 0.0182228573
      0.00863114465 0.0110223126 0. -0.0113298362 0. -0.0298864208
      -0.0219397973 0.0182228573 0.00680205785 0.00275967759
      0.0079592187 0. 0.0133338301 0. 0.0150139313 0.00695945323
      0.00680205785 -0.0118161906 -0.00643509626 -0.0164657477 0.
      -0.00479806447 0. -0.0312847793 -0.00495249126 -0.0118161906
      0.0150771271 0.0136364689 0.0281061847 0. -0.00347462716 0.
      -0.0180178341 -0.0110048996 0.0150771271 0.00473173475
      0.0104579842 0.0240731761 0. 0.0058258106 0. 0.00278494344
      0.0017277638 0.00473173475 -0.0167533159 -0.000957991346
      -0.00105141895 0. -0.00437921006 0. -0.0202488769 -0.011720567
      -0.0167533159 -0.00665688748 0.000135827067 -0.00128501782 0.
      0.00377686182 0. -0.0239197873 -0.00921832304 -0.00665688748
      -0.0182523262 0.00604797155 0.00727033196 0. 0.00374135841 0.
      -0.0105133876 0.00132502825 -0.0182523262 -0.0162424017
      0.000863671186 0.00258443691 0. -0.0117940893 0. -0.00358945108
      0.000462888769 -0.0162424017 -0.000241406815 -0.00288967649
      -0.0110047376 0. 0.00434877118 0. -0.00131022336 0.000714464812
      -0.000241406815 0.00801292807 0.000248628843 0.000743995945 0.
      0.0206843913 0. 0.0049267537 0.00164643605 0.00801292807
      -0.00171340711 -0.00545331091 -0.0163501725 0. -0.0178458132 0.
      -0.0244135745 -0.0095449714 -0.00171340711 0.00755924312
      0.0100171389 0.0199050475 0. 0.00169292442 0. -0.00086703425
      0.000335952616 0.00755924312 0.0080691725 -0.00714748213
      -0.0187225416 0. -0.0203133933 0. -0.0130503336 -0.00595446071
      0.0080691725 0.00852802489 0.00280051189 0.00324118859 0.
      -0.0092945341 0. 0.00476947566 0.00674870191 0.00852802489
      -0.00769346207 0.00604385603 0.0169680603 0. 0.00555136101 0.
      0.00669307122 0.00238521025 -0.00769346207 -0.000598198443
      0.0104901223 0.024411561 0. 0.0148467394 0. 0.0108477082
      0.00518114958 -0.000598198443 -2.41303178e-06 -0.00321387476
      0.00142028707 0. 0.00471908413 0. 0.00376996119 0.00315641775
      -2.41303178e-06 0.0153890355 0.013626799 0.0370191857 0.
      0.0433321409 0. 0.0161975026 0.00668917224 0.0153890355
      -0.00158576597 0.0107396785 0.0219693184 0. -0.0166286156 0.
      0.00808558334 0.00293922331 -0.00158576597 0.0351574197
      0.00617616205 0.0183297582 0. 0.0258524232 0. 0.0181885827
      0.00973750185 0.0351574197 0.0272607524 0.0165771004 0.0460638888
      0. 0.000992056448 0. 0.017674515 0.00619086577 0.0272607524
      0.0503430068 0.0155776767 0.044206176 0. 0.0499840975 0.
      0.0353945754 0.012562911 0.0503430068 0.0386506729 0.006059126
      0.0164591428 0. 0.023024423 0. 0.0225139651 0.00881839264
      0.0386506729 0.0126872277 0.00621242682 0.0150153777 0.
      -0.0257822424 0. 0.0257379711 0.0102201886 0.0126872277
      0.0530597381 0.0136156594 0.0352044851 0. 0.0399974138 0.
      0.0333988778 0.0113018667 0.0530597381 0.0198353343 0.00788043533
      0.0230353419 0. -0.0322026871 0. 0.024972761 0.00906207878
      0.0198353343 0.0168349501 0.00402791379 0.0110777589 0.
      0.0152058946 0. 0.0116923833 0.00391365355 0.0168349501
      -0.0131468214 -0.0067655053 -0.0241353847 0. -0.00250297273 0.
      -0.018173717 -0.0106303031 -0.0131468214 0.0265999567
      0.00666154362 0.0186904036 0. 0.00697448337 0. 0.0281017944
      0.0113741308 0.0265999567 -0.0052538407 -0.00449317228
      -0.0143665448 0. -0.0130804209 0. -0.00765911723 -0.0151399197
      -0.0052538407 -0.0167284012 -0.00234912778 -0.0103858607 0.
      0.0111054359 0. -0.00594242895 -0.00828073826 -0.0167284012
      -0.00922137313 -0.00241773878 -0.0118472716 0. 0.00673034973 0.
      -0.0148026319 -0.00580962328 -0.00922137313 -0.0020500531
      -0.000169933497 -0.00630583707 0. 0.0030645912 0. -0.00107408047
      -0.0134653877 -0.0020500531 0.00176450633 -3.27068847e-05
      -0.00988373905 0. -0.00364078511 0. -0.00049964292 -0.00101930194
      0.00176450633 -0.00172634597 -0.00943727419 -0.0322854929 0.
      -0.020300271 0. -0.0182733927 -0.00955033861 -0.00172634597
      0.014279725 0.000720393728 0.00215569325 0. 0.0237117596 0.
      0.00320576667 0.00107131083 0.014279725 -0.00173469703
      -0.00525371684 -0.0198101159 0. -0.00541717466 0. -0.0248267818
      -0.00845844578 -0.00173469703 0.0167565104 0.00147083355
      0.0044012866 0. 0.0171137489 0. 0.00353854895 0.00118252099
      0.0167565104 0.0240996219 0.00595462462 0.00107498164 0.
      -0.0196367968 0. -0.000211818857 0.000493246189 0.0240996219
      0.0284909476 0.00285145198 0.00458089635 0. -0.0213012919 0.
      0.00139206264 0.00772486022 0.0284909476 0.00584667968
      0.000494933804 -0.00497825211 0. -0.0186845567 0. -0.0183942933
      -0.00614706567 0.00584667968 0.0158279017 0.00655513071
      -0.0054424461 0. -0.0438198671 0. -0.025236031 -0.00843346585
      0.0158279017 0.0217103604 -0.00305127143 -0.00731131341 0.
      -0.00440364331 0. 0.00222932175 0.00332272798 0.0217103604
      0.013210576 0.0083672842 0.0192811564 0. 0.04385956 0.
      0.0212518182 0.00991924852 0.013210576 0.0105644055 -0.00161120319
      -0.00770910224 0. -0.026815556 0. -0.0143760014 -0.00480422238
      0.0105644055 -0.00242947927 -0.0215562042 -0.0246481597 0.
      -0.00819952507 0. 0.00709018344 0.00236431556 -0.00242947927
      0.019005714 0.0119107962 0.0215245727 0. 0.0366871655 0.
      0.0261900537 0.00946825929 0.019005714 0.00444759848 0.0116645293
      0.0270498637 0. 0.0389302857 0. 0.0306556858 0.0127496785
      0.00444759848 -0.00946177915 -0.0146449581 -0.0355267376 0.
      -0.0137245497 0. 0.0197651517 0.00669610035 -0.00946177915
      -0.00242664153 -0.00513433805 -0.0158928391 0. -0.0144018643 0.
      0.0201358441 0.00923838187 -0.00242664153 0.00823041145
      0.0157743096 0.0291810837 0. 0.0364385173 0. 0.0172084738
      0.00769840972 0.00823041145 0.00260541216 0.00803926121
      0.0208235327 0. 0.0161139481 0. 0.00500044972 0.00223546731
      0.00260541216 -0.0102158207 0.00234412332 0.0070145051 0.
      -0.00139449339 0. 0.00038288004 -0.00182534452 -0.0102158207
      -0.0164833255 0.00565578509 0.0104195559 0. -0.017043788 0.
      -0.01822583 -0.0120907109 -0.0164833255 0.0181177557 0.00728592323
      0.0186098069 0. -0.00581311481 0. 0.0122334482 0.00478606997
      0.0181177557 0.0115056317 0.00503451936 0.0123922341 0.
      -0.0241591483 0. -0.0288930889 -0.0212554559 0.0115056317
      0.00589992851 0.0143201659 0.00870748889 0. -0.0183495786 0.
      -0.0196458716 -0.00578735955 0.00589992851 0.0229921229 0.01354641
      0.0146638006 0. -0.023452824 0. -0.0346476361 -0.0214134641
      0.0229921229 0.00675874762 0.00186150661 0.00698315119 0.
      -0.0133410087 0. -0.031318102 -0.0270363893 0.00675874762
      0.00135520741 0.00073201902 0.000908937363 0. -0.00504433503 0.
      -0.00351536577 -0.00169068645 0.00135520741 0.0230171066
      0.0161422919 0.020060569 0. -0.0113946274 0. -0.0349117927
      -0.0241433159 0.0230171066 0.0131327808 0.00786356535 0.0229998734
      0. 0.00711428653 0. -0.000267449126 1.3224133e-05 0.0131327808
      -0.0251955166 -0.0329562239 -0.038197618 0. -0.0284990594 0.
      -0.0201417394 -0.00622909283 -0.0251955166 0.0224051476
      0.00250623422 0.00590068614 0. 0.0231072754 0. 0.00741532166
      0.00252599013 0.0224051476 0.00503927702 0.00522886263
      0.00869961828 0. 0.00250705122 0. 0.0150664262 0.00589540182
      0.00503927702 0.00650413241 0.00385376555 0.00917446986 0.
      -0.00135088863 0. 0.00985773001 0.00578830624 0.00650413241
      -0.0015259214 0.0020344425 -0.00911948457 0. -0.0189062953 0.
      -0.0114826113 -0.00394053338 -0.0015259214 0.0016241204
      0.000956612639 -0.00561482087 0. -0.0311220083 0. -0.0236442834
      -0.00977354217 0.0016241204 0.0048625893 0.00623191008
      0.0134470612 0. -0.00613796711 0. 0.00605000509 0.00241245748
      0.0048625893 0.0122295115 0.0149932038 0.00301974989 0.
      -0.00137089472 0. -0.0128072184 -0.00366189913 0.0122295115
      0.00586095219 0.00390889728 0.0075098183 0. -0.0112985419 0.
      -0.0118232965 -0.00375585491 0.00586095219 -0.0105878506
      -0.00593449408 -0.0156746432 0. -0.0271459557 0. 0.00307892053
      -0.000112356 -0.0105878506 0.0284392554 0.0139471479 0.0102582816
      0. -0.00152733689 0. 0.00355096045 0.00523951044 0.0284392554
      -0.0182348099 -0.000387894223 -0.00510281883 0. -0.0288829412 0.
      -0.0148174167 -0.010119698 -0.0182348099 0.0100896787
      -0.00214199699 -0.00526428781 0. -0.0145753948 0. 0.0197762251
      0.00874495786 0.0100896787 0.00456387829 0.00108781515
      0.00254739402 0. -0.0194767807 0. 0.0168628599 0.0119621791
      0.00456387829 -0.0262008253 0.000932236435 0.0030830442 0.
      -0.0282727033 0. -0.0219739247 -0.00652426435 -0.0262008253
      -0.0339092575 0.00126262312 -0.00290598697 0. -0.0430061072 0.
      -0.0312870033 -0.0122904666 -0.0339092575 0.0051058135
      -0.000948489644 -0.00243078964 0. -0.0218048301 0. 0.00859061629
      0.0050117909 0.0051058135 0.00817239098 0.00408379501
      2.0505151e-05 0. -0.021556044 0. -0.0055587911 -0.00325514702
      0.00817239098 -0.0169533808 -0.00606574025 -0.0114306435 0.
      -0.0209028721 0. -0.0294221472 -0.00983238686 -0.0169533808
      0.0178133603 -0.012497087 -0.0231561307 0. -0.00246919109 0.
      -0.0116698211 -0.00637422362 0.0178133603 0.00605293736
      0.0128103625 0.00712435925 0. -0.0151377814 0. -0.0181971416
      -0.00434625894 0.00605293736 0.0213923585 0.0111031802
      0.0279417038 0. -0.0110968417 0. -0.006431235 0.00335440855
      0.0213923585 -0.00254349294 -0.0212404318 -0.0301937312 0.
      -0.0119883856 0. -0.0121910553 -0.00256775948 -0.00254349294
      -0.00193464803 -0.00994249806 -0.017785972 0. -0.024415683 0.
      -0.00685958425 -0.0109736398 -0.00193464803 0.0192945786
      0.010740811 0.00722543895 0. -0.00967089646 0. -0.0255169738
      -0.0219002645 0.0192945786 0.00632696925 0.00331773725
      0.00830324087 0. 0.010638047 0. -0.00517542055 -0.000299916515
      0.00632696925 -0.00863785949 -0.013551346 -0.0204897448 0.
      -0.025296703 0. -0.0198884513 -0.0165729187 -0.00863785949
      0.019326793 0.0039713583 0.0118048918 0. 0.00139670423 0.
      0.00775348721 0.0041752588 0.019326793 -0.000387250242
      -0.0018722947 -0.00685309665 0. -0.0114444643 0. 0.0183089394
      0.00687114568 -0.000387250242 0.0183583163 0.00201246655
      0.00602205191 0. 0.0103506753 0. 0.0112074362 0.0072428789
      0.0183583163 0.0254237149 0.00416481122 0.0103422506 0.
      0.0459795259 0. 0.0204505902 0.0147867883 0.0254237149
      0.0172853135 0.00129130296 0.00386405736 0. 0.00554525107 0.
      0.011297564 0.00436096126 0.0172853135</_></support_vectors>
  <uncompressed_sv_total>68</uncompressed_sv_total>
  <uncompressed_support_vectors>
    <_>
      0.125150472 0.00498614414 0.0149203995 0. 0.296010017 0.
      0.296010017 0.211714372 0.125150472 0.156720191 0.0145378197
      0.0435025766 0. 0.296010017 0. 0.296010017 0.124641649 0.156720191
      0.124542519 0.0227582641 0.068101339 0. 0.296010017 0. 0.296010017
      0.141260684 0.124542519 0.216504321 0.0576879419 0.172623917 0.
      0.296010017 0. 0.227475524 0.0760183409 0.216504321 0.143677369
      0.0304232687 0.0910378844 0. 0.271250069 0. 0.14918907
      0.0498564728 0.143677369 0.271250069 0.0623221695 0.186491445 0.
      0.271250069 0. 0.103358954 0.0345408246 0.271250069 0.190943971
      0.092912659 0.271250069 0. 0.271250069 0. 0.107650183 0.035974849
      0.190943971 0.271250069 0.13673383 0.271250069 0. 0.271250069 0.
      0.142615005 0.0476594903 0.271250069 0.2544626 0.0613095723
      0.183461204 0. 0.0773053393 0. 0.02547298 0.0085126413 0.2544626
      0.2544626 0.110650524 0.2544626 0. 0.0597211272 0. 0.193519086
      0.0646707788 0.2544626 0.23196052 0.0912292674 0.2544626 0.
      0.2544626 0. 0.0483850427 0.0161694381 0.23196052 0.2544626
      0.104727387 0.2544626 0. 0.2544626 0. 0.220668212 0.0737434477
      0.2544626 0.223280013 0.0765971765 0.229207605 0. 0.220741481 0.
      0.174841598 0.0584290475 0.223280013 0.194780827 0.0390164778
      0.116751917 0. 0.23515518 0. 0.152133986 0.0508405529 0.194780827
      0.23515518 0.0832956061 0.23515518 0. 0.23515518 0. 0.23515518
      0.100942448 0.23515518 0.23515518 0.0779918805 0.233380646 0.
      0.23515518 0. 0.23515518 0.0970050395 0.23515518 0.186287776
      0.0136887236 0.0409617312 0. 0.260826141 0. 0.208382472
      0.0696378499 0.186287776 0.260826141 0.00577997928 0.0172958355 0.
      0.260826141 0. 0.240459934 0.0803576633 0.260826141 0.260826141
      0.0466872044 0.139705509 0. 0.260826141 0. 0.260826141 0.100681067
      0.260826141 0.214057192 0.00437995652 0.0131064774 0. 0.260826141
      0. 0.260826141 0.0962789282 0.214057192 0.272076964 0.0123010054
      0.036809247 0. 0.0790450796 0. 0.0713356212 0.0238391683
      0.272076964 0.272076964 0.120656855 0.272076964 0. 0.0726778656 0.
      0.0447508246 0.0149549795 0.272076964 0.255103886 0.0114308922
      0.0342054814 0. 0.272076964 0. 0.0764852315 0.0255600531
      0.255103886 0.272076964 0.136213794 0.272076964 0. 0.272076964 0.
      0.241862595 0.080826439 0.272076964 0.246836066 0.0904839337
      0.246836066 0. 0.105702467 0. 0.107317246 0.0358635858 0.246836066
      0.246836066 0.0375696309 0.1124226 0. 0.184046656 0. 0.118040837
      0.0394471809 0.246836066 0.246836066 0.0863863006 0.246836066 0.
      0.246836066 0. 0.246836066 0.110615842 0.246836066 0.244142964
      0.0205343887 0.0614466295 0. 0.246836066 0. 0.246836066
      0.166470706 0.244142964 0.0952113122 0.0356317759 0.106623784 0.
      0.246037066 0. 0.253117204 0.11130368 0.0952113122 0.203599319
      0.0816906616 0.244448975 0. 0.253117204 0. 0.253117204 0.18704471
      0.203599319 0.116051763 0.0510752201 0.152836278 0. 0.253117204 0.
      0.236985981 0.079196617 0.116051763 0.225344285 0.112663656
      0.253117204 0. 0.253117204 0. 0.253117204 0.177171484 0.225344285
      0.236591578 0.191631302 0.278275222 0. 0.278275222 0. 0.278275222
      0.0930011496 0.236591578 0.24904713 0.200715706 0.278275222 0.
      0.278275222 0. 0.112156004 0.03748063 0.24904713 0.176201358
      0.132558912 0.278275222 0. 0.119646557 0. 0.2291338 0.0765725598
      0.176201358 0.0521384366 0.0622629002 0.186313644 0. 0.023565799
      0. 0.00482535595 0.00161255326 0.0521384366 0.315801591
      0.153700754 0.315801591 0. 0.315801591 0. 0.111326598 0.0372034125
      0.315801591 0.315801591 0.115187183 0.315801591 0. 0.315801591 0.
      0.315801591 0.154618099 0.315801591 0.0244936496 0.0120549193
      0.0360727832 0. 0.0196172502 0. 0.0041175331 0.0013760085
      0.0244936496 0.0845932886 0.0120915556 0.0361824073 0. 0.056378033
      0. 0.049246788 0.0164574143 0.0845932886 0.282662272 0.0671336353
      0.200888768 0. 0.282662272 0. 0.282662272 0.17521061 0.282662272
      0.271076232 0.0761227384 0.227787629 0. 0.282662272 0. 0.282662272
      0.218236998 0.271076232 0.0678986013 0.00597717147 0.0178859066 0.
      0.0426535979 0. 0.125659987 0.0419933833 0.0678986013 0.0794658884
      0.0213323534 0.0638344511 0. 0.282662272 0. 0.239835501
      0.0801488608 0.0794658884 0.21103856 0.0411513075 0.123140194 0.
      0.280226737 0. 0.280226737 0.109321311 0.21103856 0.134796754
      0.00908955466 0.0271993838 0. 0.280226737 0. 0.203794211
      0.0681045055 0.134796754 0.121175833 0.0476427861 0.142565116 0.
      0.280226737 0. 0.280226737 0.098498337 0.121175833 0.280226737
      0.0402592346 0.12047065 0. 0.280226737 0. 0.280226737 0.10697227
      0.280226737 0.121300124 0.0224171951 0.0670805871 0. 0.230381161
      0. 0.0458926223 0.0153365377 0.121300124 0.258624226 0.155729994
      0.274733037 0. 0.274733037 0. 0.19607693 0.0655256361 0.258624226
      0.274733037 0.0592543557 0.177311048 0. 0.103231028 0.
      0.0733486339 0.0245118476 0.274733037 0.274733037 0.211045355
      0.274733037 0. 0.274733037 0. 0.0775728747 0.0259235613
      0.274733037 0.20735538 0.114469841 0.244905025 0. 0.244905025 0.
      0.205213755 0.0685789734 0.20735538 0.20619525 0.0760581195
      0.227594629 0. 0.244905025 0. 0.198857918 0.0664548501 0.20619525
      0.244905025 0.144812673 0.244905025 0. 0.244905025 0. 0.0739418566
      0.0247101337 0.244905025 0.212651923 0.0827251971 0.244905025 0.
      0.244905025 0. 0.0288139023 0.00962912384 0.212651923 0.308413446
      0.0890545398 0.26648441 0. 0.308413446 0. 0.282377124 0.0943655446
      0.308413446 0.308413446 0.209351748 0.308413446 0. 0.308413446 0.
      0.308413446 0.150503367 0.308413446 0.0189312082 0. 0. 0. 0. 0. 0.
      0. 0.0189312082 0.0243401248 0. 0. 0. 0. 0. 0. 0. 0.0243401248
      0.397809356 0.397809356 0.397809356 0. 0.397809356 0. 0.397809356
      0.187982723 0.397809356 0.0563487336 0.0204774439 0.0612760857 0.
      0. 0. 0. 0. 0.0563487336 0.0180323627 0. 0. 0. 0. 0. 0. 0.
      0.0180323627 0. 0. 0. 0. 0. 0. 0. 0. 0. 0. 0. 0. 0. 0. 0. 0. 0. 0.
      0. 0. 0. 0. 0. 0. 0. 0. 0. 0. 0. 0. 0. 0. 0. 0. 0. 0. 0. 0. 0. 0.
      0. 0. 0. 0. 0. 0. 0. 0. 0. 0. 0. 0. 0. 0. 0.230275512 0.0987707078
      0.295558929 0. 0.399314582 0. 0.332164973 0.111003719 0.230275512
      0.119980164 0.00442689611 0.0132469535 0. 0. 0. 0. 0. 0.119980164
      0.399314582 0.123317219 0.369011849 0. 0.062931709 0. 0.0822015554
      0.0274703726 0.399314582 0.23023212 0.0745746419 0.223155156 0.
      0.328598738 0. 0.319079071 0.106630623 0.23023212 0.328598738
      0.0732784346 0.219276309 0. 0.328598738 0. 0.328598738 0.150299549
      0.328598738 0.157735601 0.0225372203 0.0674398839 0. 0.0475456454
      0. 0.0459585413 0.0153585682 0.157735601 0.0707641989 0.0147690102
      0.0441944525 0. 0.184762955 0. 0.0208902471 0.00698116748
      0.0707641989 0.301246524 0.0655258149 0.196077749 0. 0.258906275
      0. 0.0476722568 0.0159312338 0.301246524 0.301246524 0.149426401
      0.301246524 0. 0.301246524 0. 0.0167156365 0.00558608677
      0.301246524 0.022107685 0.0678970516 0.203173772 0. 0.301246524 0.
      0. 0. 0.022107685 0.0798694566 0.0875039473 0.261845052 0.
      0.301246524 0. 0.013779439 0.0046048467 0.0798694566 0.3548868
      0.259680629 0.3548868 0. 0.3548868 0. 0.0687130243 0.0229627434
      0.3548868 0.289563984 0.0611892939 0.18310155 0. 0.178099856 0.
      0.0277511887 0.00927398261 0.289563984 0.126903862 0.046832297
      0.140140012 0. 0.3548868 0. 0.0468158014 0.0156450197 0.126903862
      0. 0. 0. 0. 0.00434323261 0. 0.0031210538 0.00104300131 0. 0. 0.
      0. 0. 0. 0. 0. 0. 0. 0. 0. 0. 0. 0. 0. 0. 0. 0. 0. 0. 0. 0. 0. 0.
      0. 0. 0. 0. 0. 0. 0. 0. 0. 0. 0. 0. 0. 0. 0. 0. 0. 0. 0. 0. 0.
      0.0757426098 0.0239927396 0.0717953816 0. 0. 0. 0. 0. 0.0757426098
      0. 0. 0. 0. 0. 0. 0. 0. 0. 0.403349876 0.359891087 0.403349876 0.
      0.403349876 0. 0.403349876 0.189180404 0.403349876 0.0449286439
      0.0154042142 0.0460952483 0. 0.00172687008 0. 0. 0. 0.0449286439
      0.187354699 0.0545540005 0.163246259 0. 0.00748310331 0.
      0.00134571816 0.000449715415 0.187354699 0.314014316 0.114332139
      0.319678992 0. 0.195387706 0. 0.137218684 0.0458560809 0.314014316
      0.319678992 0.218902364 0.319678992 0. 0.22501044 0. 0.319678992
      0.107728124 0.319678992 0.177620217 0.0409826599 0.122635648 0.
      0.0062811086 0. 0.00361477747 0.00120799523 0.177620217
      0.271625966 0.0888918415 0.265997767 0. 0.0235362984 0.
      0.0199131444 0.0066546374 0.271625966 0.273698777 0.12878567
      0.273698777 0. 0.197335109 0. 0.199428976 0.0666457564 0.273698777
      0.273698777 0.193864018 0.273698777 0. 0.273698777 0. 0.160060093
      0.0534893647 0.273698777 0.294430345 0.132512808 0.294430345 0.
      0.160669431 0. 0.103106737 0.0344565473 0.294430345 0.0820831805
      0.0313772783 0.0938925967 0. 0.294430345 0. 0.053141132
      0.0177588724 0.0820831805 0.294430345 0.224555224 0.294430345 0.
      0.294430345 0. 0.202673852 0.0677302107 0.294430345 0.101160191
      0.0257531442 0.0770629942 0. 0.294430345 0. 0.104283266
      0.0348496884 0.101160191 0.0053762868 0.05926634 0.177347392 0.
      0.394339889 0. 0.0235542525 0.00787142199 0.0053762868
      0.0926064774 0.0525201671 0.157160282 0. 0.394339889 0.
      0.201420292 0.0673111826 0.0926064774 0.00326625491 0.0159461107
      0.0477168113 0. 0.394339889 0. 0.169851497 0.0567614064
      0.00326625491 0.129138336 0.0124025298 0.0371130779 0. 0.394339889
      0. 0.394339889 0.153891638 0.129138336 0.179005072 0.00647118362
      0.0193642396 0. 0.387381285 0. 0.387381285 0.156592175 0.179005072
      0.00234499481 0. 0. 0. 0.0812730044 0. 0.0229738243 0.00767744891
      0.00234499481 0.32304728 0. 0. 0. 0.387381285 0. 0.387381285
      0.24339591 0.32304728 0.0157110803 0. 0. 0. 0.174930274 0.
      0.0230637342 0.00770749524 0.0157110803 0. 0. 0. 0. 0. 0. 0. 0. 0.
      0. 0. 0. 0. 0. 0. 0. 0. 0. 0. 0. 0. 0. 0. 0. 0. 0. 0. 0. 0. 0. 0.
      0. 0. 0. 0. 0. 0. 0. 0. 0. 0. 0. 0. 0. 0. 0.389796466 0.216368437
      0.389796466 0. 0.389796466 0. 0.389796466 0.309167206 0.389796466
      0. 0. 0. 0. 0. 0. 0. 0. 0. 0.134277418 0. 0. 0. 0.0852552429 0.
      0.213495001 0.0713462904 0.134277418 0.305849254 0.0610662326
      0.182733312 0. 0.193406597 0. 0.259383559 0.0866814405 0.305849254
      0.305849254 0.10529577 0.305849254 0. 0.18886289 0. 0.305849254
      0.200595379 0.305849254 0.0843384117 0. 0. 0. 0.0117999362 0.
      0.0743510127 0.0248468034 0.0843384117 0.255059063 0.00437146472
      0.0130810803 0. 0.00785089657 0. 0.208858833 0.0697969869
      0.255059063 0.260906726 0.0796735436 0.238413349 0. 0.178268224 0.
      0.260906726 0.125805765 0.260906726 0.260906726 0.0826744586
      0.247392893 0. 0.260906726 0. 0.260906726 0.140421689 0.260906726
      0.190528721 0.00904960092 0.0270798411 0. 0.0121279508 0.
      0.171021789 0.0571525134 0.190528721 0.260906726 0.00966453273
      0.028919911 0. 0.0233743116 0. 0.260906726 0.102769837 0.260906726
      0.296693981 0.0629779771 0.188453376 0. 0.223326623 0. 0.296693981
      0.190292239 0.296693981 0.0880906284 0.0147631485 0.0441767983 0.
      0.243842199 0. 0.227955282 0.0761787891 0.0880906284 0.296693981
      0.0345871672 0.103497595 0. 0.155129567 0. 0.296693981 0.196937308
      0.296693981 0.111487627 0.0269011315 0.0804981291 0. 0.198310539
      0. 0.236620739 0.0790746212 0.111487627 0. 0.000161994758
      0.00048474822 0. 0.340180963 0. 0.232171088 0.0775875077 0.
      0.0697520077 0.00927802082 0.0277632698 0. 0.340180963 0.
      0.339386791 0.113417178 0.0697520077 0.0159897767 0.00480012735
      0.0143637611 0. 0.340180963 0. 0.177470326 0.0593074672
      0.0159897767 0.133680582 0.132063374 0.340180963 0. 0.340180963 0.
      0.340180963 0.121528253 0.133680582 0.164662182 0.0177360494
      0.0530728213 0. 0.390344709 0. 0.20475319 0.0684249923 0.164662182
      0.0176520348 0.000972998329 0.00291157095 0. 0.062137261 0.
      0.012210045 0.00408038218 0.0176520348 0.22676751 0.24335961
      0.390344709 0. 0.390344709 0. 0.327177227 0.109336898 0.22676751
      0.0261801612 0.0193110649 0.0577859953 0. 0.376496315 0.
      0.0471056402 0.0157418791 0.0261801612 0. 0. 0. 0. 0. 0. 0. 0. 0.
      0. 0. 0. 0. 0. 0. 0. 0. 0. 0. 0. 0. 0. 0. 0. 0. 0. 0. 0. 0. 0. 0.
      0. 0. 0. 0. 0. 0. 0. 0. 0. 0. 0. 0. 0. 0. 0. 0. 0. 0. 0. 0. 0. 0.
      0. 0. 0. 0. 0. 0. 0. 0. 0. 0. 0. 0. 0. 0. 0. 0. 0. 0. 0. 0. 0. 0.
      0. 0. 0. 0. 0. 0. 0.704615593 0. 0. 0. 0. 0. 0. 0. 0.704615593 0.
      0. 0. 0. 0. 0. 0. 0. 0. 0. 0. 0. 0. 0. 0. 0. 0. 0. 0.344305813 0.
      0. 0. 0. 0. 0.16660586 0.0556767508 0.344305813 0.45424509
      0.0282446165 0.0845183358 0. 0. 0. 0.45424509 0.317105025
      0.45424509 0. 0. 0. 0. 0. 0. 0. 0. 0. 0. 0. 0. 0. 0. 0. 0. 0. 0.
      0.345247239 0.0825679377 0.247073784 0. 0.282818437 0. 0.345247239
      0.259026706 0.345247239 0.293152481 0.0642195046 0.192168504 0.
      0.345247239 0. 0.287511379 0.0960813388 0.293152481 0. 0. 0. 0. 0.
      0. 0. 0. 0. 0. 0. 0. 0. 0. 0. 0. 0. 0. 0.029430287 0.00996137504
      0.0298081674 0. 0.221714363 0. 0.0669620931 0.0223775562
      0.029430287 0.15121761 0.283625573 0.38885352 0. 0.38885352 0.
      0.178619966 0.0596916564 0.15121761 0.00710901851 0.00515259616
      0.0154185193 0. 0.193610877 0. 0.00855808984 0.00285996357
      0.00710901851 0.162250102 0.170733541 0.38885352 0. 0.38885352 0.
      0.218445867 0.0730007812 0.162250102 0.0752750114 0.248176381
      0.319012642 0. 0.319012642 0. 0.0818288848 0.0273457784
      0.0752750114 0.00486204028 0.0233726166 0.0699397326 0.
      0.196647704 0. 0.0115361847 0.00385519024 0.00486204028
      0.205848619 0.159653366 0.319012642 0. 0.319012642 0. 0.319012642
      0.129538178 0.205848619 0.184268847 0.053965982 0.161486268 0.
      0.134904221 0. 0.319012642 0.139322877 0.184268847 0.0961796045
      0.0140758818 0.0421203859 0. 0.0481403954 0. 0.046659451
      0.0155928098 0.0961796045 0.0634156764 0.00519365119 0.0155413765
      0. 0.0201935768 0. 0.0697509721 0.0233096126 0.0634156764
      0.304107368 0.17418392 0.304107368 0. 0.304107368 0. 0.304107368
      0.110859409 0.304107368 0.241631433 0.178507105 0.304107368 0.
      0.304107368 0. 0.304107368 0.162806854 0.241631433 0.0144942375 0.
      0. 0. 0.0156455282 0. 0.0589201488 0.019690128 0.0144942375 0. 0.
      0. 0. 0. 0. 0. 0. 0. 0.38428387 0.296473205 0.38428387 0.
      0.38428387 0. 0.38428387 0.235027179 0.38428387 0.0641398951
      0.0062800087 0.0187921692 0. 0.309902191 0. 0.0701616332
      0.0234468449 0.0641398951 0. 0. 0. 0. 0. 0. 0. 0. 0. 0. 0. 0. 0.
      0. 0. 0. 0. 0. 0. 0. 0. 0. 0. 0. 0. 0. 0. 0.501757205 0. 0. 0.
      0.501757205 0. 0.464356542 0.155180201 0.501757205 0. 0. 0. 0. 0.
      0. 0. 0. 0. 0. 0. 0. 0. 0. 0. 0. 0. 0. 0.22667101 0.0222495068
      0.0665789694 0. 0.357919782 0. 0.190554455 0.0636800826 0.22667101
      0.357919782 0.0964145288 0.288508862 0. 0.357919782 0. 0.357919782
      0.339565217 0.357919782 0. 0. 0. 0. 0. 0. 0. 0. 0. 0. 0. 0. 0. 0.
      0. 0. 0. 0. 0.355355471 0.0586070195 0.175374463 0. 0.355355471 0.
      0.355355471 0.355355471 0.355355471 0.256427795 0.0793455318
      0.237431958 0. 0.355355471 0. 0.0967854783 0.032344088 0.256427795
      0.0086598862 0.000761519128 0.00227875449 0. 0.170996323 0.
      0.0170211121 0.00568815693 0.0086598862 0.306077451 0.0799813494
      0.239333883 0. 0.306077451 0. 0.306077451 0.172728464 0.306077451
      0.236360908 0.0577394105 0.172778204 0. 0.190331742 0. 0.06309288
      0.0210845843 0.236360908 0.306077451 0.0243205056 0.0727761388 0.
      0.306077451 0. 0.1543044 0.051565893 0.306077451 0.15740864
      0.0380565971 0.113879457 0. 0.188522875 0. 0.290741682 0.105384491
      0.15740864 0.236229151 0.0590848289 0.176803753 0. 0.191127747 0.
      0.290741682 0.145932868 0.236229151 0.141450852 0.0207987912
      0.0622377954 0. 0.290741682 0. 0.0844786763 0.0282312911
      0.141450852 0.290741682 0.0848722011 0.253969401 0. 0.290741682 0.
      0.214495137 0.0716805682 0.290741682</_>
    <_>
      0.0989359692 0.0177893415 0.0532324649 0. 0.293278098 0.
      0.293278098 0.122742586 0.0989359692 0.022307856 0.0336409658
      0.100666545 0. 0.293278098 0. 0.293278098 0.1180152 0.022307856
      0.293278098 0.0608370937 0.182047665 0. 0.173801303 0. 0.293278098
      0.134753615 0.293278098 0.157527536 0.110027395 0.293278098 0.
      0.293278098 0. 0.104053684 0.0347729735 0.157527536 0.00106848578
      0.0173323043 0.0518648326 0. 0.437679499 0. 0.144109413
      0.0481588393 0.00106848578 0.157919332 0.0269430578 0.0806235895
      0. 0.437679499 0. 0. 0. 0.157919332 0.0160272866 0.0548573472
      0.164154008 0. 0.437679499 0. 0.0168271381 0.00562333409
      0.0160272866 0.190780669 0.0180516336 0.0540171601 0. 0.437679499
      0. 0.188187152 0.0628890023 0.190780669 0.165403262 0.108178258
      0.308049887 0. 0.308049887 0. 0.00687988102 0.00229913532
      0.165403262 0.308049887 0.145770743 0.308049887 0. 0.297095239 0.
      0.172621414 0.0576870479 0.308049887 0.164148167 0.0406088792
      0.121516794 0. 0.308049887 0. 0.147733614 0.04937011 0.164148167
      0.0735201389 0.0376103409 0.112544052 0. 0.308049887 0.
      0.0606419928 0.0202655289 0.0735201389 0.188293308 0.0782181248
      0.234057724 0. 0.189882532 0. 0.252415508 0.141254559 0.188293308
      0.252415508 0.10910777 0.252415508 0. 0.252415508 0. 0.252415508
      0.162080601 0.252415508 0.0547157377 0.0363312252 0.108716592 0.
      0.242563322 0. 0.22769998 0.0760933906 0.0547157377 0.13142316
      0.0994005501 0.252415508 0. 0.252415508 0. 0.252415508 0.134300306
      0.13142316 0.371918291 0.0395493507 0.118346296 0. 0.0937751904 0.
      0.119650446 0.0399851575 0.371918291 0.371918291 0.0261711106
      0.0783138946 0. 0.322235107 0. 0. 0. 0.371918291 0.118676253
      0.0431023054 0.128978059 0. 0.152315304 0. 0.124390878
      0.0415693261 0.118676253 0.176861912 0.0180981643 0.0541565754 0.
      0.371918291 0. 0.0276962407 0.00925559737 0.176861912 0.352044106
      0.0830089375 0.248394251 0. 0.352044106 0. 0. 0. 0.352044106
      0.251036227 0.0602739304 0.180362478 0. 0.238052517 0. 0. 0.
      0.251036227 0.230474636 0.0473720953 0.141755298 0. 0.352044106 0.
      0.0684476048 0.0228739865 0.230474636 0.109171711 0.0296220277
      0.0886403546 0. 0.212380558 0. 0.040465761 0.0135229463
      0.109171711 0.24210608 0.183012486 0.39843446 0. 0.39843446 0. 0.
      0. 0.24210608 0. 0. 0. 0. 0. 0. 0. 0. 0. 0.39843446 0.0831874907
      0.248928577 0. 0.355915248 0. 0.109804593 0.0366947688 0.39843446
      0.0257922933 0. 0. 0. 0. 0. 0. 0. 0.0257922933 0.33828339
      0.110377759 0.330292106 0. 0.0781243965 0. 0.33828339 0.209544554
      0.33828339 0.33828339 0.194372445 0.33828339 0. 0.274763256 0.
      0.151282504 0.050556086 0.33828339 0. 0. 0. 0. 0. 0. 0. 0. 0. 0.
      0. 0. 0. 0. 0. 0. 0. 0. 0.0162139684 0.0286186319 0.0856378078 0.
      0.0700851679 0. 0. 0. 0.0162139684 0.0389510542 0.00527322199
      0.0157794282 0. 0.457798928 0. 0.457798928 0.281597078
      0.0389510542 0. 0. 0. 0. 0. 0. 0. 0. 0. 0. 0.0545818061
      0.163328946 0. 0.457798928 0. 0.457798928 0.17678687 0.
      0.0269483943 0.00701009668 0.0209767986 0. 0.345127612 0.
      0.345127612 0.192998409 0.0269483943 0.0107114399 0.00545229763
      0.0163152888 0. 0.29984051 0. 0.250975132 0.0838716999
      0.0107114399 0. 0.072559759 0.217125654 0. 0.345127612 0.
      0.345127612 0.16043371 0. 0. 0.0564353727 0.168875515 0.
      0.345127612 0. 0.286881536 0.0958710089 0. 0.215158656
      0.0495633967 0.148312002 0. 0.310394794 0. 0.310394794 0.140193686
      0.215158656 0.310394794 0.214774728 0.310394794 0. 0.310394794 0.
      0.310394794 0.208127618 0.310394794 0. 0. 0. 0. 0.310394794 0. 0.
      0. 0. 0. 0. 0. 0. 0. 0. 0. 0. 0. 0.0428191461 0.0320322029
      0.0958522037 0. 0.0850153491 0. 0.0453536138 0.0151563957
      0.0428191461 0.243915439 0.0416248068 0.124557212 0. 0.515875816
      0. 0.257264882 0.0859734043 0.243915439 0. 0. 0. 0. 0. 0. 0. 0. 0.
      0.172841832 0.119128063 0.356476337 0. 0.515875816 0. 0.159745902
      0.053384278 0.172841832 0.197153017 0.0361681432 0.108228818 0.
      0.301346153 0. 0.218693972 0.0730836913 0.197153017 0.16933322
      0.0207368564 0.0620525517 0. 0.301346153 0. 0.150248528
      0.0502104238 0.16933322 0.181193322 0.104232229 0.301346153 0.
      0.301346153 0. 0.167777091 0.0560681634 0.181193322 0.25388661
      0.0715622529 0.214141235 0. 0.301346153 0. 0.148682699
      0.0496871471 0.25388661 0.37028718 0. 0. 0. 0.390731424 0.
      0.0644775331 0.0215472598 0.37028718 0.0235593561 0. 0. 0.
      0.0907524303 0. 0. 0. 0.0235593561 0.390731424 0.0437673368
      0.130968064 0. 0.390731424 0. 0.194155708 0.0648834258 0.390731424
      0.0630198494 0. 0. 0. 0.16585128 0. 0.0267478637 0.0089386655
      0.0630198494 0. 0. 0. 0. 0. 0. 0. 0. 0. 0. 0. 0. 0. 0. 0. 0. 0. 0.
      0. 0. 0. 0. 0. 0. 0. 0. 0. 0. 0. 0. 0. 0. 0. 0. 0. 0. 0. 0. 0. 0.
      0. 0. 0. 0. 0. 0. 0.145416647 0.435140342 0. 0.461041063 0.
      0.344641924 0.115173586 0. 0. 0. 0. 0. 0. 0. 0. 0. 0. 0.0439262651
      0.105974317 0.317114383 0. 0.461041063 0. 0.317536503 0.106115386
      0.0439262651 0. 0.0856990963 0.256443381 0. 0.309101164 0.
      0.203109547 0.06787581 0. 0. 0.0666548535 0.199455976 0.
      0.309101164 0. 0.157974079 0.0527922995 0. 0.108698063
      0.0624543652 0.186886549 0. 0.309101164 0. 0.234280691
      0.0782926977 0.108698063 0.302111298 0.0526678301 0.157601669 0.
      0.309101164 0. 0.284803003 0.0951764137 0.302111298 0. 0. 0. 0.
      0.0968550965 0. 0. 0. 0. 0. 0. 0. 0. 0. 0. 0. 0. 0. 0.367961019
      0.0903040022 0.270223856 0. 0.0523748621 0. 0.171893805
      0.0574440397 0.367961019 0.367961019 0.177094355 0.367961019 0. 0.
      0. 0.367961019 0.162610993 0.367961019 0. 0. 0. 0. 0. 0. 0. 0. 0.
      0.0387289561 0.0291911867 0.0873510018 0. 0.306966424 0.
      0.0602335073 0.0201289821 0.0387289561 0.306966424 0.106231645
      0.306966424 0. 0. 0. 0.306966424 0.113523617 0.306966424
      0.306966424 0.129874572 0.306966424 0. 0.280582786 0. 0.306966424
      0.116597287 0.306966424 0.087744385 0.0450487882 0.134802863 0.
      0.260646194 0. 0.0930550545 0.0310973767 0.087744385 0.187356874
      0.0840423554 0.251486063 0. 0.260646194 0. 0.162944943
      0.0544533767 0.187356874 0.25518164 0.0694283321 0.20775573 0.
      0.260646194 0. 0.179947376 0.0601353273 0.25518164 0.260646194
      0.157439336 0.260646194 0. 0.260646194 0. 0.246562257 0.0823968425
      0.260646194 0.26293689 0.0777239278 0.232578963 0. 0.321671575 0.
      0.193869382 0.0647877678 0.26293689 0.023775287 0.00397310778
      0.0118890461 0. 0.181422144 0. 0.0287721194 0.00961513724
      0.023775287 0.321671575 0.231552675 0.321671575 0. 0.321671575 0.
      0.225773901 0.0754497275 0.321671575 0.0153226582 0.0284688752
      0.0851896778 0. 0.29109329 0. 0.0223783143 0.00747843971
      0.0153226582 0.00952301454 0. 0. 0. 0. 0. 0. 0. 0.00952301454
      0.00432864344 0. 0. 0. 0. 0. 0. 0. 0.00432864344 0.352465272
      0.169690102 0.352465272 0. 0. 0. 0.352465272 0.126675293
      0.352465272 0.352465272 0.0222929325 0.0667086989 0. 0.0460274592
      0. 0.352465272 0.273368657 0.352465272 0. 0. 0. 0. 0. 0. 0. 0. 0.
      0.1398274 0.0363112278 0.108656615 0. 0.453104109 0. 0.274832249
      0.0918443426 0.1398274 0.2926476 0. 0. 0. 0.259279519 0.
      0.453104109 0.453104109 0.2926476 0.0322678611 0. 0. 0.
      0.0489999019 0. 0.0183221512 0.00612295652 0.0322678611
      0.265249789 0.0194915514 0.0583259277 0. 0.337380469 0.
      0.284221768 0.094982177 0.265249789 0.337380469 0.0270251352
      0.0808693096 0. 0.325764984 0. 0.337380469 0.173273221 0.337380469
      0.052183874 0. 0. 0. 0.0103256535 0. 0.0413799882 0.0138285011
      0.052183874 0.269031763 0.00273808604 0.00819339231 0.
      0.00469347835 0. 0.100823559 0.0336935483 0.269031763 0.333868504
      0.0797929019 0.238770649 0. 0.00216596783 0. 0.151885927
      0.0507577322 0.333868504 0.333868504 0.156481132 0.333868504 0. 0.
      0. 0.333868504 0.143683583 0.333868504 0.235119984 0.0184137467
      0.0551009215 0. 0. 0. 0.035050597 0.0117133223 0.235119984
      0.165025234 0.0361110307 0.108057901 0. 0. 0. 0.0992202535
      0.033157751 0.165025234 0.310405135 0.138010412 0.310405135 0. 0.
      0. 0.310405135 0.147483706 0.310405135 0.310405135 0.151791587
      0.310405135 0. 0.0741538405 0. 0.310405135 0.131137624 0.310405135
      0.145750046 0.0318485536 0.0953029692 0. 0. 0. 0.101844415
      0.0340347029 0.145750046 0.165875196 0.0335492454 0.100392066 0.
      0.00944874156 0. 0.0905566737 0.0302625243 0.165875196 0.309349716
      0.143901929 0.309349716 0. 0.309349716 0. 0.309349716 0.116580166
      0.309349716 0.309349716 0.168719679 0.309349716 0. 0.309349716 0.
      0.165062383 0.0551610254 0.309349716 0.109903589 0.0231806897
      0.0693654269 0. 0.0397455618 0. 0.0703610405 0.0235134847
      0.109903589 0.0473535806 0.00774587505 0.0231786016 0.
      0.0279632341 0. 0.010682215 0.00356981764 0.0473535806 0.416239828
      0.416239828 0.416239828 0. 0.416239828 0. 0.129290134 0.0432065465
      0.416239828 0.0167595055 0.0629888996 0.188486695 0. 0.259004354
      0. 0. 0. 0.0167595055 0.043810837 0. 0. 0. 0. 0. 0. 0. 0.043810837
      0.00111730036 0. 0. 0. 0. 0. 0. 0. 0.00111730036 0.300764591
      0.0881278142 0.263711005 0. 0.00533259008 0. 0.205938518
      0.0688210353 0.300764591 0.217971399 0.0236144047 0.0706631765 0.
      0.205095097 0. 0.300764591 0.252659649 0.217971399 0.0887588486
      0.0458649285 0.137245119 0. 0.0550269671 0. 0.0453517102
      0.0151557447 0.0887588486 0.0348421261 0.239377633 0.300764591 0.
      0.300764591 0. 0.300764591 0.14675869 0.0348421261 0.0468346551
      0.0268386975 0.0803115666 0. 0.352440923 0. 0.352440923
      0.252565354 0.0468346551 0.014282682 0.00853784662 0.0255484097 0.
      0.119233325 0. 0.0192328189 0.00642727269 0.014282682
      0.00517843524 0.313414335 0.352440923 0. 0.352440923 0.
      0.352440923 0.214886889 0.00517843524 0.0369267724 0.0256796498
      0.0768431053 0. 0.352440923 0. 0.0754787102 0.0252237022
      0.0369267724 0.11898794 0.0303466972 0.0908086225 0. 0.16453667 0.
      0.0426352285 0.0142479539 0.11898794 0.152984485 0.0359859318
      0.107683405 0. 0.187709242 0. 0.0805195943 0.0269082412
      0.152984485 0.269401193 0.133964822 0.287097573 0. 0.287097573 0.
      0.213298708 0.0712808073 0.269401193 0.287097573 0.197713807
      0.287097573 0. 0.287097573 0. 0.270088494 0.0902589336 0.287097573
      0.199191555 0.0409230329 0.122457244 0. 0.359370261 0. 0.156631708
      0.0523435622 0.199191555 0. 0. 0. 0. 0. 0. 0. 0. 0. 0.359370261
      0.308825791 0.359370261 0. 0.359370261 0. 0.34458974 0.115155846
      0.359370261 0. 0. 0. 0. 0. 0. 0. 0. 0. 0. 0. 0. 0. 0. 0. 0. 0. 0.
      0. 0. 0. 0. 0. 0. 0. 0. 0. 0. 0. 0. 0. 0. 0. 0. 0. 0. 0. 0. 0. 0.
      0. 0. 0. 0. 0. 0. 0. 0. 0. 0. 0. 0. 0. 0. 0. 0. 0. 0. 0. 0. 0. 0.
      0. 0. 0. 0. 0. 0. 0. 0. 0. 0. 0. 0. 0. 0. 0. 0. 0. 0. 0. 0. 0. 0.
      0. 0. 0. 0. 0. 0. 0. 0. 0. 0. 0. 0. 0. 0. 0. 0. 0. 0. 0. 0. 0. 0.
      0. 0. 0. 0. 0. 0. 0. 0. 0. 0. 0. 0.259622693 0.122587137
      0.286478519 0. 0.141032279 0. 0.0542677492 0.0181353763
      0.259622693 0.0868491679 0.28090784 0.286478519 0. 0.286478519 0.
      0.10601569 0.0354286395 0.0868491679 0.286478519 0.115906984
      0.286478519 0. 0.0829210803 0. 0.0697728172 0.0233169124
      0.286478519 0.137496457 0.0920405909 0.275420398 0. 0.261575997 0.
      0.0897079185 0.0299788862 0.137496457 0.0293854829 0.439184278
      0.439184278 0. 0.439184278 0. 0.22290419 0.0744907111 0.0293854829
      0.0511793457 0.0205057096 0.0613607876 0. 0.363229692 0.
      0.0840179622 0.02807739 0.0511793457 0.064648062 0.0632810146
      0.189360783 0. 0.3983154 0. 0.0592353269 0.0197954569 0.064648062
      0.00300910324 0. 0. 0. 0. 0. 0. 0. 0.00300910324 0.304918915
      0.155841753 0.304918915 0. 0.304918915 0. 0.271810085 0.0908343494
      0.304918915 0.304918915 0.24943532 0.304918915 0. 0.304918915 0.
      0.273796111 0.091497995 0.304918915 0.0171166528 0. 0. 0. 0. 0. 0.
      0. 0.0171166528 0.017183641 0. 0. 0. 0. 0. 0. 0. 0.017183641
      0.389574975 0.454382658 0.454382658 0. 0.454382658 0. 0.254567325
      0.0850719213 0.389574975 0. 0. 0. 0. 0. 0. 0. 0. 0. 0.015675474 0.
      0. 0. 0. 0. 0. 0. 0.015675474 0. 0. 0. 0. 0. 0. 0. 0. 0. 0. 0. 0.
      0. 0. 0. 0. 0. 0. 0. 0. 0. 0. 0. 0. 0. 0. 0. 0. 0. 0. 0. 0. 0. 0.
      0. 0. 0. 0. 0. 0. 0. 0. 0. 0. 0. 0. 0. 0. 0. 0. 0. 0. 0. 0. 0. 0.
      0. 0. 0. 0. 0. 0. 0. 0. 0. 0. 0. 0. 0. 0. 0. 0. 0. 0. 0. 0. 0. 0.
      0. 0. 0. 0. 0. 0. 0. 0. 0. 0. 0. 0. 0. 0. 0. 0. 0. 0. 0. 0. 0. 0.
      0. 0. 0. 0. 0. 0. 0. 0. 0. 0. 0. 0. 0. 0. 0. 0. 0. 0.400465935
      0.214501172 0.400465935 0. 0.0511871241 0. 0.143457681
      0.0479411595 0.400465935 0.366573811 0.0766859278 0.229473412 0.
      0.221810862 0. 0.18444559 0.0616386347 0.366573811 0. 0. 0. 0. 0.
      0. 0. 0. 0. 0. 0. 0. 0. 0.170470476 0. 0. 0. 0. 0.00919190235
      0.00218400592 0.00653535267 0. 0.0123411044 0. 0.00377524388
      0.00126162346 0.00919190235 0.0698941872 0.0146324793 0.0437857918
      0. 0. 0. 0.028908357 0.00966066495 0.0698941872 0.0103948843
      0.171954766 0.385738224 0. 0.148255318 0. 0. 0. 0.0103948843
      0.385738224 0.385738224 0.385738224 0. 0.131923735 0. 0.385738224
      0.144909978 0.385738224 0.0531709939 0.00465765456 0.0139374239 0.
      0. 0. 0.0237706956 0.00794374943 0.0531709939 0.0452689528 0. 0.
      0. 0. 0. 0.00360886776 0.00120602036 0.0452689528 0.419196814
      0.117611483 0.351937056 0. 0.00372441835 0. 0.356560439
      0.119156234 0.419196814 0.419196814 0. 0. 0. 0. 0. 0.0541330129
      0.018090304 0.419196814 0.0404551886 0. 0. 0. 0. 0. 0. 0.
      0.0404551886 0.0308460165 0. 0. 0. 0. 0. 0. 0. 0.0308460165
      0.411053658 0.00899426546 0.0269142538 0. 0.162982076 0. 0. 0.
      0.411053658 0.411053658 0.108649045 0.325118512 0. 0.411053658 0.
      0.0302461497 0.0101077324 0.411053658 0.0187861975 0. 0. 0. 0. 0.
      0. 0. 0.0187861975 0.00801399816 0. 0. 0. 0. 0. 0. 0.
      0.00801399816 0.350877434 0.175405294 0.350877434 0. 0.350877434
      0. 0.2875413 0.0960912555 0.350877434 0.350877434 0.0498601459
      0.149200007 0. 0.036886204 0. 0.31195274 0.104249135 0.350877434
      0. 0. 0. 0. 0. 0. 0. 0. 0. 0. 0. 0. 0. 0. 0. 0. 0. 0. 0.404275715
      0. 0. 0. 0.00419931812 0. 0.325260103 0.108696222 0.404275715
      0.404275715 0. 0. 0. 0.206468105 0. 0.404275715 0.136057049
      0.404275715 0. 0. 0. 0. 0. 0. 0. 0. 0. 0. 0. 0. 0. 0. 0. 0. 0. 0.
      0.481699318 0. 0. 0. 0.481699318 0. 0.481699318 0.248204634
      0.481699318 0. 0. 0. 0. 0.0737985596 0. 0. 0. 0.</_>
    <_>
      0.105254002 0.126411185 0.309188843 0. 0.309188843 0. 0.117571302
      0.0392902792 0.105254002 0.16723904 0.186972752 0.309188843 0.
      0.309188843 0. 0.289679766 0.0968060568 0.16723904 0.0366186015
      0.0755901113 0.226194337 0. 0.309188843 0. 0.0687226206
      0.022965895 0.0366186015 0.0697315782 0.102034666 0.305326194 0.
      0.309188843 0. 0.0819642097 0.0273910258 0.0697315782 0.158978462
      0.0594269522 0.17782788 0. 0.263567179 0. 0.263567179 0.110931009
      0.158978462 0.263567179 0.11149209 0.263567179 0. 0.105023816 0.
      0.156601593 0.0523336418 0.263567179 0.212707371 0.0853518322
      0.255404413 0. 0.170208216 0. 0.113046214 0.0377781503 0.212707371
      0.263567179 0.173266649 0.263567179 0. 0.193176493 0. 0.132006958
      0.044114504 0.263567179 0.269944608 0.0400866903 0.119954519 0.
      0.049054347 0. 0.0282254759 0.0094324816 0.269944608 0.269944608
      0.0263767112 0.0789291114 0. 0.269944608 0. 0.150234684
      0.0502059124 0.269944608 0.269944608 0.0920808762 0.269944608 0.
      0.188578054 0. 0.0706125721 0.0235975105 0.269944608 0.269944608
      0.0251755361 0.0753345788 0. 0.269944608 0. 0.269944608 0.12515679
      0.269944608 0.131572574 0.074026905 0.22151649 0. 0.272744566 0.
      0.103869848 0.0347115546 0.131572574 0.160928771 0.13812153
      0.272744566 0. 0.272744566 0. 0.153387666 0.0512595326 0.160928771
      0.206421748 0.0287910923 0.0861537457 0. 0.272744566 0.
      0.272744566 0.109092332 0.206421748 0.191228077 0.10526561
      0.272744566 0. 0.272744566 0. 0.272744566 0.119887367 0.191228077
      0.0989456847 0.097964935 0.26808235 0. 0.26808235 0. 0.159947231
      0.0534516163 0.0989456847 0.0855660066 0.0676366538 0.202393964 0.
      0.26808235 0. 0.143880546 0.0480824225 0.0855660066 0.160830274
      0.104150668 0.26808235 0. 0.26808235 0. 0.26808235 0.120389208
      0.160830274 0.26808235 0.0655144453 0.196043789 0. 0.26808235 0.
      0.26808235 0.134268478 0.26808235 0.162241563 0.0425221995
